\data\
ngram 1=2996
ngram 2=24230
ngram 3=45816

\1-grams:
-4.353794	<unk>	0
0	<s>	-1.030551
-1.2561122	</s>	0
-3.141043	YEAST	-0.27784956
-2.5485933	HAS	-0.3601901
-2.82193	CELLS	-0.4211666
-1.996055	THAT	-0.47827464
-2.215529	ARE	-0.32583752
-3.3627102	ALIVE	-0.33839443
-2.2720468	THEY	-0.46852908
-3.072367	NEED	-0.30298886
-3.072367	OXYGEN	-0.27409178
-1.8167261	TO	-0.52337974
-3.4061282	BREATHE	-0.20511714
-2.0757656	BECAUSE	-0.6739027
-2.6985135	THEY'RE	-0.32603464
-2.9609277	LIVING	-0.3865291
-2.5747197	THINGS	-0.40247932
-2.3488798	ALL	-0.39462447
-2.8463962	PLANTS	-0.32293463
-2.8339908	AIR	-0.27896625
-3.116924	CAN'T	-0.18780465
-3.1937141	WITHOUT	-0.19297604
-1.7403966	IT	-0.56765914
-2.2822251	IT'S	-0.34935847
-3.141043	SUNLIGHT	-0.30150363
-3.9845102	SLASH	-0.1396589
-2.6399746	ENERGY	-0.45617688
-2.7876356	YES	-0.3351981
-3.0516932	WON'T	-0.24789773
-3.2226567	GROW	-0.25530943
-2.5815046	SOME	-0.325068
-2.8723233	KIND	-1.3657467
-2.1021597	OF	-0.41846246
-3.2226567	DON'T	-0.21486829
-2.554979	HAVE	-0.3588354
-3.2536664	ENOUGH	-0.26116845
-2.6724536	CAUSE	-0.35571542
-2.5180013	THEN	-0.34584948
-2.4784982	THIS	-0.3038929
-1.8408926	IS	-0.47709286
-2.7876356	FOOD	-0.3401112
-3.072367	DOESN'T	-0.21098176
-3.141043	SUN	-0.31990114
-3.323241	ISN'T	-0.19515395
-2.588397	NO	-0.31517592
-3.0130827	WAIT	-0.30054432
-3.4061282	NEEDS	-0.2742245
-2.432477	CAN	-0.33397382
-1.4892012	AND	-0.5818032
-4.090559	VEGETABLES	-0.1396589
-3.323241	PLANT	-0.2673436
-2.037002	OR	-0.32829502
-3.3627102	PRODUCE	-0.20223841
-3.4061282	SHOWS	-0.23041055
-3.8389251	FERTILIZER	-0.1396589
-3.6431246	SUCH	-0.44640583
-2.554979	AS	-0.36535326
-3.323241	GRASS	-0.3472
-2.7457545	DO	-0.34504083
-3.6431246	SHELTER	-0.20561711
-2.6322205	SOMETHING	-0.3593806
-2.0998979	YOU	-0.44986385
-2.6809676	GET	-0.34726176
-4.2037864	COVERED	-0.1396589
-2.6097562	BY	-0.2960609
-3.0940742	STILL	-0.1708545
-3.1665804	KEEP	-0.2489633
-3.323241	CARBON	-0.7474358
-4.2037864	DIOXIDE	-0.1396589
-3.072367	THOSE	-0.23258528
-2.82193	THEIR	-0.2545784
-2.4276521	FROM	-0.44179833
-1.6094637	THE	-0.5343719
-2.373583	WATER	-0.41303033
-3.4543738	UNDER	-0.27495262
-4.090559	GROUND	-0.1396589
-3.2536664	PEOPLE	-0.1632307
-2.6478693	DOWN	-0.4405556
-3.6431246	ONTO	-0.38697755
-2.7987688	MAKE	-0.39848065
-3.6431246	OWN	-0.1876602
-2.7167978	ONLY	-0.21584424
-2.9448473	GOT	-0.23924555
-2.5006297	TWO	-0.3331746
-3.8389251	NEEDED	-0.1632307
-2.4228802	MORE	-0.40160152
-2.4134908	FOR	-0.32907227
-3.116924	DIDN'T	-0.22904627
-2.5239496	WAS	-0.26018432
-3.8389251	MISSING	-0.1632307
-2.4626098	IF	-0.5823592
-3.8389251	COULDN'T	-0.16728678
-2.49499	WILL	-0.32031506
-3.6431246	DIE	-0.20561711
-3.4543738	MOSTLY	-0.15602387
-3.7300825	GROWN	-0.1396589
-2.2653913	BUT	-0.50366265
-2.8339908	WAY	-0.30680582
-3.4543738	LAST	-0.16728678
-2.7987688	THREE	-0.25090688
-4.090559	ELEMENTS	-0.1396589
-3.0130827	MEANS	-0.33031607
-3.8389251	THAT'LL	-0.1396589
-2.16031	ON	-0.5853877
-3.570707	UNTIL	-0.29526234
-3.2536664	I'VE	-0.2769204
-3.031959	BEEN	-0.25397414
-3.8389251	STUDYING	-0.14981453
-3.5086567	LIFE	-0.20561711
-3.9845102	PEOPLE'S	-0.19679238
-3.2870622	BODY	-0.24344262
-3.2226567	PARTS	-0.34540027
-1.9379545	A	-0.4392585
-4.090559	PERSON	-0.15451042
-2.9293413	THESE	-0.24465528
-3.2870622	BLUE	-0.20223841
-3.4061282	SHOWING	-0.26723364
-2.5747197	DIFFERENT	-0.290188
-3.8389251	KINDS	-0.44929275
-2.052904	LIKE	-0.42076683
-3.2870622	BRAIN	-0.328628
-3.7300825	CELL	-0.21369718
-3.4061282	MUSCLE	-0.51914793
-1.9652059	IN	-0.5884297
-2.8998973	PROBABLY	-0.16716315
-3.6431246	THINKING	-0.1632307
-3.1665804	TRYING	-0.92352706
-3.4543738	SHOW	-0.1917778
-3.9845102	POINTING	-0.18178906
-2.5747197	AT	-0.4071178
-3.9845102	TELLING	-0.24084952
-2.810195	ME	-0.29728583
-2.9776263	HELP	-0.362997
-3.072367	US	-0.19997542
-2.5299807	NOT	-0.2776592
-4.2037864	SUNBURNED	-0.1396589
-3.072367	ALSO	-0.18570893
-3.570707	MUSCLES	-0.23727037
-2.1206913	I	-0.57255745
-2.8723233	SEE	-0.33550504
-3.5086567	SKIN	-0.44411004
-3.323241	GREEN	-0.20462662
-3.8389251	BOX	-0.20945473
-4.090559	BUTTERFLY	-0.16728678
-4.2037864	BUTTERFLIES	-0.1396589
-4.090559	MULTIPLE	-0.18178906
-2.5954008	THEM	-0.29279935
-2.9143698	BOTH	-0.2375654
-3.570707	HUMANS	-0.21459875
-3.323241	SAME	-0.17445351
-2.6097562	WELL	-0.31641328
-3.570707	HUMAN	-0.19673485
-3.570707	DIGESTIVE	-0.49612206
-2.9949927	SYSTEM	-0.38586378
-4.2037864	INCLUDES	-0.1396589
-4.090559	ESOPHAGUS	-0.1396589
-3.8389251	MOUTH	-0.16509806
-3.116924	THINK	-0.24817218
-2.6025193	ABOUT	-0.33108896
-3.9845102	BREAKING	-0.1396589
-3.0940742	STUFF	-0.3658131
-3.116924	MAKING	-0.26202324
-2.4626098	INTO	-0.53533745
-3.570707	NUTRIENTS	-0.29526234
-3.3627102	BREAKS	-0.30570495
-3.323241	TURNS	-0.2593621
-3.9845102	CHEWS	-0.20917976
-3.9845102	FOODS	-0.1396589
-3.031959	LITTLE	-0.16800998
-4.2037864	TINY	-0.1396589
-3.4543738	PIECES	-0.19854096
-2.9448473	VERY	-0.23034541
-2.9293413	GOOD	-0.36325115
-2.9776263	PART	-0.5404022
-3.0940742	KNOW	-0.2827085
-3.8389251	INTESTINES	-0.1632307
-3.6431246	BRING	-0.2674467
-3.9845102	BROKE	-0.1396589
-3.9845102	STOMACH	-0.1698878
-2.3693671	UP	-0.48342645
-3.3627102	COMES	-0.322073
-3.6431246	SHAPE	-0.16728678
-3.9845102	SIZES	-0.17690097
-3.9845102	PINNATE	-0.1396589
-3.5086567	SORT	-0.49612206
-4.090559	SHAPED	-0.1396589
-4.090559	FEATHER	-0.18178906
-3.2536664	VEINS	-0.28641784
-3.2870622	LEAF	-0.23084748
-3.8389251	NORMAL	-0.18178906
-3.9845102	XYLEM	-0.19679238
-2.7075593	GOING	-0.43427616
-4.2037864	PHLOEM	-0.1396589
-3.4061282	LOW	-0.22870636
-4.090559	SAP	-0.1396589
-2.8463962	GOES	-0.34665632
-2.6809676	THROUGH	-0.46590135
-2.050884	SO	-0.6108891
-4.090559	SEEDS	-0.1396589
-3.6431246	BAG	-0.18815571
-3.4543738	CAME	-0.23529468
-4.090559	HUMIDITY	-0.1396589
-4.090559	RESPIRATORY	-0.19679238
-3.570707	LUNGS	-0.17138703
-3.570707	HEART	-0.18249996
-4.2037864	CAPILLARY	-0.1396589
-3.9845102	HELPING	-0.1396589
-2.4472823	OUT	-0.47575107
-3.6431246	NOSE	-0.25124425
-3.1665804	HELPS	-0.3132611
-4.2037864	BREATHES	-0.1396589
-3.116924	C	-0.25491884
-3.7300825	O	-0.17302972
-3.141043	WE'RE	-0.2721573
-3.570707	TAKING	-0.18815571
-3.4543738	PUTTING	-0.20802787
-2.9609277	BACK	-0.3616042
-3.1937141	LET	-0.29139987
-2.6809676	GO	-0.40945905
-2.239745	WE	-0.5042572
-3.323241	LEARNING	-0.40520513
-3.1937141	DECOMPOSERS	-0.21001892
-3.0940742	PRODUCERS	-0.26207238
-3.7300825	COMPOSERS	-0.17302972
-3.9845102	ECOSYSTEMS	-0.1396589
-4.090559	WEBS	-0.1396589
-4.090559	CHAINS	-0.2284496
-4.2037864	SUITCASE	-0.1396589
-4.2037864	ZIPPER	-0.1396589
-3.323241	SURE	-0.22081733
-4.2037864	NONE	-0.1396589
-2.588397	YOUR	-0.30492285
-4.2037864	LUGGAGE	-0.1396589
-3.7300825	FALLS	-0.1396589
-3.2536664	FIRST	-0.1663676
-2.4678416	THERE	-0.53562057
-3.4061282	MANY	-0.15993369
-3.7300825	SUBSYSTEMS	-0.25124425
-2.2214577	ONE	-0.43011457
-3.6431246	CAR	-0.1755144
-2.7876356	AN	-0.25538534
-3.9845102	EXAMPLE	-0.18178906
-4.090559	RELATES	-0.19679238
-2.8591664	MY	-0.1767324
-3.2870622	SCIENCE	-0.23763514
-3.6431246	CLASS	-0.23870397
-3.0940742	SYSTEMS	-0.47534359
-3.9845102	BELIEVE	-0.1396589
-3.116924	MOVE	-0.3259074
-2.5299807	WOULD	-0.33307678
-2.810195	BE	-0.2715792
-3.6431246	ABLE	-0.51335263
-4.2037864	BUNCH	-0.1396589
-3.9845102	ADDING	-0.1396589
-2.6097562	WHICH	-0.38904095
-4.090559	WHEELS	-0.1396589
-3.5086567	LOTS	-0.4875381
-2.9293413	WORK	-0.44185984
-3.9845102	CORRECTLY	-0.1396589
-3.2870622	EXACTLY	-0.21717292
-2.4678416	WHAT	-0.4195596
-3.0516932	DOES	-0.33716643
-4.2037864	WEB	-0.1396589
-3.2536664	CONSUMERS	-0.29778004
-3.7300825	GROUPS	-0.1396589
-4.090559	CHAIN	-0.16728678
-2.9293413	YOU'RE	-0.21957566
-3.323241	BASICALLY	-0.18474853
-4.2037864	BOTTOM	-0.1396589
-2.9293413	EAT	-0.3259702
-3.0516932	ANYTHING	-0.37706086
-2.9143698	OTHER	-0.2558085
-3.0516932	ANIMALS	-0.31928718
-2.9949927	ACTUALLY	-0.18120146
-4.090559	CONSUME	-0.1396589
-2.9949927	EVERYTHING	-0.2327839
-3.4061282	GIVE	-0.22863787
-3.7300825	OTHERS	-0.23727037
-4.2037864	COMPOSE	-0.1396589
-2.4731374	WHEN	-0.6044106
-3.5086567	CONSUMER	-0.28749412
-4.2037864	DIES	-0.1396589
-3.570707	BACTERIA	-0.27174008
-3.570707	SLOWLY	-0.1396589
-2.810195	OUR	-0.18257251
-3.9845102	NATURAL	-0.1396589
-4.2037864	RESOURCE	-0.1396589
-3.4061282	LEARNED	-0.26011434
-2.1681585	UM	-0.3802482
-4.2037864	MIND	-0.1396589
-3.6431246	HERBIVORES	-0.1698878
-3.570707	OMNIVORES	-0.21360458
-3.570707	CARNIVORES	-0.1396589
-3.4543738	DETRIVORES	-0.32146707
-2.2891457	YEAH	-0.48815578
-4.090559	GREENS	-0.1396589
-3.323241	MEAT	-0.39835253
-2.6246026	THAT'S	-0.39683136
-2.3864825	HOW	-0.55556667
-3.6431246	CONNECTS	-0.37613475
-3.6431246	DECAYING	-0.44496953
-4.2037864	DECAYED	-0.1396589
-3.7300825	MATTER	-0.22226125
-3.8389251	BEAR	-0.27031457
-3.7300825	OMNIVORE	-0.17302972
-3.6431246	EATS	-0.19390474
-4.090559	MOOSE	-0.18178906
-3.9845102	HERBIVORE	-0.15788089
-3.8389251	DECOMPOSER	-0.18731368
-4.2037864	EATEN	-0.1396589
-3.5086567	WORMS	-0.18582976
-3.2536664	HALF	-0.28493792
-3.1665804	WEIGHT	-0.2752879
-4.2037864	DECOMPOSED	-0.1396589
-4.2037864	LANDS	-0.1396589
-3.570707	FILLED	-0.18815571
-2.2891457	WITH	-0.40151322
-3.2870622	DEAD	-0.25702336
-3.8389251	ROTTEN	-0.1396589
-4.2037864	GROSS	-0.1396589
-3.8389251	ENVIRONMENT	-0.19294645
-3.6431246	CIRCLE	-0.2661187
-4.2037864	WATCHING	-0.1396589
-3.9845102	SHORT	-0.1396589
-4.090559	CLIP	-0.1396589
-4.090559	VIDEO	-0.2284496
-3.2870622	TODAY	-0.27140424
-2.810195	I'M	-0.28786093
-3.0940742	DOING	-0.21010126
-3.8389251	THANK	-0.44929275
-3.072367	WE'VE	-0.51791143
-3.7300825	LOT	-0.15325321
-3.9845102	EXPERIMENTING	-0.19679238
-4.2037864	EFFECTS	-0.1396589
-3.8389251	EFFECT	-0.2284496
-3.2870622	ANIMAL	-0.17302972
-3.141043	GETTING	-0.15800719
-4.090559	OFTEN	-0.2284496
-3.323241	WHAT'S	-0.23201677
-3.9845102	HAPPENING	-0.18178906
-3.8389251	ORGANISM	-0.23727037
-3.570707	ORGANISMS	-0.28867286
-4.2037864	DEHYDRATION	-0.1396589
-4.090559	STARVATION	-0.19679238
-3.8389251	SURVIVE	-0.17302972
-3.8389251	CORRECT	-0.1396589
-3.0940742	TIME	-0.36108002
-2.7358863	THAN	-0.34856957
-3.6431246	LIVE	-0.21626621
-4.090559	INTERESTING	-0.19679238
-3.8389251	AM	-0.17723492
-3.9845102	PROBLEM	-0.17302972
-4.2037864	NAY	-0.1396589
-4.2037864	IDEAS	-0.1396589
-3.323241	WHY	-0.24261373
-4.2037864	HAMBURGER	-0.1396589
-3.8389251	EVERYONE	-0.1396589
-4.090559	WITHIN	-0.2284496
-4.2037864	COUPLE	-0.1396589
-4.090559	WEEKS	-0.1396589
-3.4543738	JUICE	-0.26649493
-3.6431246	APPLE	-0.17302972
-2.9776263	COULD	-0.24160053
-4.2037864	TOMATO	-0.1396589
-3.1665804	BEING	-0.20057482
-4.090559	SHOWN	-0.1396589
-3.570707	PICTURE	-0.20680143
-4.2037864	KEY	-0.1396589
-4.2037864	THEY'VE	-0.1396589
-2.8723233	MADE	-0.47180212
-3.5086567	GUESS	-0.17302972
-2.489423	JUST	-0.25254217
-2.8339908	OVER	-0.38140792
-3.7300825	CYCLE	-0.17302972
-4.090559	GOTTEN	-0.1396589
-4.2037864	HASN'T	-0.1396589
-3.7300825	GREAT	-0.17690097
-4.090559	PLAYS	-0.1396589
-3.3627102	IMPORTANT	-0.2889538
-3.9845102	ROLE	-0.1396589
-3.031959	LOOK	-0.27396855
-4.2037864	SUPER	-0.1396589
-3.570707	HEALTHY	-0.17690097
-3.5086567	TELL	-0.20602389
-3.4543738	NEXT	-0.2657126
-3.9845102	FEW	-0.17302972
-3.8389251	DAYS	-0.1632307
-2.8463962	MAYBE	-0.31545386
-3.072367	NOW	-0.28881693
-3.031959	ANY	-0.19514622
-2.8591664	TOO	-0.40302107
-3.5086567	QUESTION	-0.27001107
-4.090559	WONDERING	-0.1396589
-3.4543738	LOOKS	-0.2908148
-3.9845102	BIOSPHERE	-0.1396589
-4.2037864	LETS	-0.1396589
-3.0940742	START	-0.18178903
-3.570707	HEAR	-0.21376128
-3.7300825	NAME	-0.1632307
-4.090559	VASCULAR	-0.1396589
-4.090559	MAPLE	-0.1396589
-4.2037864	SYRUP	-0.1396589
-3.3627102	LEAVES	-0.26293674
-2.8339908	THERE'S	-0.30327946
-4.2037864	POLLY	-0.1396589
-3.116924	PARALLEL	-0.28488207
-3.8389251	PALMATE	-0.2284496
-3.8389251	NOTICE	-0.20009173
-3.6431246	TYPES	-0.625384
-4.090559	PENNATE	-0.1396589
-4.2037864	CRUCIAL	-0.1396589
-4.2037864	PLANT'S	-0.1396589
-4.2037864	BET	-0.1396589
-4.090559	CLOUDS	-0.1396589
-4.2037864	BUILD	-0.1396589
-3.116924	INSIDE	-0.39139324
-3.9845102	ORGANS	-0.1396589
-3.116924	AFTER	-0.19793712
-4.2037864	DIGESTED	-0.1396589
-3.8389251	PURPLE	-0.1396589
-4.2037864	MAGENTA	-0.1396589
-4.2037864	ISH	-0.1396589
-3.9845102	SPOTS	-0.1396589
-2.9143698	WHERE	-0.37407306
-2.9293413	PRETTY	-0.40001908
-3.0940742	SMALLER	-0.30471587
-4.2037864	LEAFS	-0.1396589
-4.2037864	BUTTERFLY'S	-0.1396589
-3.9845102	BIT	-0.1876602
-4.2037864	SIMPLER	-0.1396589
-3.9845102	HUMAN'S	-0.1396589
-4.2037864	COMPLEX	-0.1396589
-3.8389251	ABSORB	-0.1396589
-3.4061282	BLOOD	-0.21266937
-4.2037864	STREAM	-0.1396589
-4.2037864	COMPACT	-0.1396589
-3.570707	SOLID	-0.20356464
-3.4543738	WASTE	-0.25405475
-3.9845102	FURTHER	-0.19679238
-4.2037864	MECHANICAL	-0.1396589
-3.3627102	CHEMICAL	-0.41172493
-4.2037864	ACTIONS	-0.1396589
-3.9845102	DIGEST	-0.27031457
-4.2037864	CONTAINS	-0.1396589
-3.7300825	TEETH	-0.18178906
-3.8389251	CHEW	-0.18178906
-4.2037864	MUSHY	-0.1396589
-3.5086567	BALL	-0.23875815
-4.090559	SENDS	-0.1396589
-3.323241	LONG	-0.23060709
-3.7300825	TUBE	-0.19294645
-3.1665804	IT'LL	-0.19422466
-4.090559	EVENTUALLY	-0.1396589
-3.9845102	REACH	-0.324354
-2.6399746	REALLY	-0.24816997
-4.2037864	CHEWED	-0.1396589
-4.090559	INTESTINE	-0.1396589
-4.2037864	RECTUM	-0.1396589
-3.141043	BEFORE	-0.26293674
-3.9845102	POOP	-0.324354
-3.8389251	CIRCULATORY	-0.36722457
-4.2037864	INCLUDING	-0.1396589
-4.090559	CAPILLARIES	-0.1396589
-4.090559	ALVEOLI	-0.1396589
-4.090559	DIGESTS	-0.1396589
-3.0130827	MAKES	-0.36920065
-3.0130827	GETS	-0.2039568
-3.5086567	WASN'T	-0.17723492
-3.570707	BREATHING	-0.17690097
-2.7661905	RIGHT	-0.37246025
-3.2226567	WOULDN'T	-0.23403873
-4.090559	LEAVING	-0.1396589
-3.8389251	WEREN'T	-0.1396589
-4.090559	MAIN	-0.1396589
-4.2037864	LUNG	-0.1396589
-4.2037864	INHALE	-0.1396589
-3.116924	TAKE	-0.2532865
-3.9845102	EXHALE	-0.1396589
-3.031959	MUCH	-0.19946603
-2.8723233	USE	-0.3503508
-3.5086567	CERTAIN	-0.1396589
-4.090559	STIMULI	-0.1396589
-3.2536664	ATTRACT	-0.24169885
-4.2037864	MATE	-0.1396589
-4.2037864	VISION	-0.1396589
-3.323241	SOUND	-0.28678623
-4.090559	ADAPT	-0.1396589
-4.2037864	ENVIRONMENTS	-0.1396589
-4.090559	HAVEN'T	-0.16509806
-3.7300825	ADAPTATIONS	-0.25590652
-4.090559	TORTOISE	-0.1396589
-3.8389251	USES	-0.18178906
-2.8591664	ITS	-0.19002493
-3.7300825	SHELL	-0.19679238
-4.090559	PREDATOR	-0.17302972
-4.2037864	EXTREME	-0.1396589
-3.4061282	HEAT	-0.20934014
-3.7300825	WHOLE	-0.14867432
-3.570707	EASIER	-0.17690097
-4.2037864	REASONS	-0.1396589
-3.141043	SMALL	-0.25364184
-3.1937141	MIGHT	-0.30392477
-3.9845102	CORAL	-0.1396589
-3.4061282	COLORS	-0.21929842
-4.2037864	PATTERNS	-0.1396589
-4.090559	EASY	-0.1396589
-3.9845102	BLEND	-0.19679238
-3.9845102	SEA	-0.19679238
-3.8389251	COLORFUL	-0.1396589
-3.8389251	SECOND	-0.15602387
-3.8389251	WEBBED	-0.27031457
-3.5086567	FEET	-0.15602387
-3.8389251	SWIM	-0.24084952
-3.570707	FAST	-0.18948278
-3.6431246	ADAPTATION	-0.20945473
-3.8389251	WINGS	-0.19679238
-3.2536664	BRIGHT	-0.23941793
-3.9845102	WARN	-0.1396589
-3.5086567	PREDATORS	-0.20561711
-3.1937141	STAY	-0.23625581
-2.9609277	AWAY	-0.4533251
-3.9845102	POISONOUS	-0.1396589
-3.4543738	USUALLY	-0.1396589
-3.3627102	MEAN	-0.15498278
-3.9845102	POISON	-0.1396589
-3.8389251	RATTLE	-0.1396589
-4.2037864	SNAKES	-0.1396589
-4.2037864	WARNS	-0.1396589
-4.2037864	RATTLESNAKE	-0.1396589
-4.090559	RATTLING	-0.1396589
-4.090559	TAIL	-0.18178906
-3.6431246	SCARED	-0.23727037
-3.0516932	USING	-0.2463492
-3.6431246	STIMULUS	-0.1396589
-3.4061282	REACTION	-0.22086431
-4.2037864	COYOTES	-0.1396589
-4.2037864	BACKING	-0.1396589
-3.8389251	SKUNK	-0.15219223
-3.0940742	USED	-0.21914986
-3.9845102	ODOR	-0.1396589
-3.9845102	SCARE	-0.25590652
-4.090559	COYOTE	-0.1396589
-4.090559	SQUIRT	-0.1396589
-3.8389251	SMELL	-0.16728678
-3.6431246	HORRIBLE	-0.20009173
-3.072367	OH	-0.20635968
-4.2037864	MATES	-0.1396589
-4.2037864	FRIGHTEN	-0.1396589
-4.090559	LIKES	-0.1396589
-3.8389251	SHARP	-0.27031457
-4.090559	PLAY	-0.1396589
-3.031959	BIG	-0.21786205
-2.7987688	OFF	-0.35300282
-3.8389251	SNAKE	-0.17302972
-4.2037864	SCARING	-0.1396589
-3.9845102	LEAVE	-0.19679238
-4.090559	ALONE	-0.2284496
-4.2037864	SNAKE'S	-0.1396589
-4.2037864	AUTOMATICALLY	-0.1396589
-4.090559	SQUIRTS	-0.1396589
-3.9845102	SMELLS	-0.2284496
-3.8389251	WANTS	-0.27031457
-2.7358863	AROUND	-0.46869183
-4.090559	PLUG	-0.1396589
-3.8389251	ELECTRICAL	-0.18178906
-4.2037864	STEERING	-0.1396589
-3.9845102	WHEEL	-0.1632307
-4.2037864	SEATS	-0.1396589
-4.090559	WINDOWS	-0.1396589
-4.090559	DRIVE	-0.1396589
-3.570707	GAS	-0.18853834
-3.116924	RUN	-0.39408097
-4.2037864	CONTROL	-0.1396589
-3.9845102	PIPES	-0.1396589
-3.2536664	LIGHTS	-0.23557138
-4.2037864	HOVER	-0.1396589
-3.2536664	RED	-0.16840495
-3.0940742	FLOWING	-0.3204906
-4.090559	VESSELS	-0.1396589
-2.6478693	UH	-0.24622361
-4.2037864	POPULATION	-0.1396589
-2.9949927	DID	-0.27218744
-3.116924	SAY	-0.3137126
-3.9845102	PRODUCER	-0.17302972
-4.2037864	PRODUCER'S	-0.1396589
-3.9845102	PRODUCING	-0.1396589
-3.570707	DECOMPOSE	-0.1632307
-3.9845102	FUNGUS	-0.1396589
-3.2226567	EATING	-0.24488033
-2.7767806	THING	-0.33589822
-3.570707	CARNIVORE	-0.25405475
-3.4543738	AH	-0.21376128
-4.2037864	HUNGRY	-0.1396589
-3.5086567	TELLS	-0.37085405
-3.2226567	WHITE	-0.26667738
-3.9845102	FOX	-0.18178906
-4.090559	WEASEL	-0.1396589
-4.2037864	DUDE	-0.1396589
-4.2037864	RABBIT	-0.1396589
-3.3627102	TALKING	-0.33534735
-3.8389251	COMPOST	-0.1396589
-4.090559	NEWSPAPER	-0.1396589
-3.2870622	STARTS	-0.2700489
-3.570707	HIGH	-0.18178906
-3.4061282	REAL	-0.15219223
-4.090559	SHRINK	-0.2284496
-4.090559	BODIES	-0.1396589
-3.9845102	TOP	-0.1698878
-3.8389251	PINK	-0.18178906
-4.2037864	THIGHS	-0.1396589
-3.570707	REGULAR	-0.15602387
-4.090559	MEMORY	-0.1396589
-3.4543738	CONNECTING	-0.18731368
-2.9143698	TOGETHER	-0.388194
-3.2226567	COME	-0.301664
-4.090559	SPECIAL	-0.1396589
-3.2536664	ONES	-0.24543251
-4.090559	PROTECT	-0.1396589
-4.2037864	DIGESTING	-0.1396589
-3.9845102	THROAT	-0.1396589
-4.090559	SWALLOW	-0.1396589
-3.7300825	PROCESS	-0.24084952
-3.8389251	THANKS	-0.18178906
-3.1665804	BYE	-0.41395843
-4.090559	LATELY	-0.1396589
-3.9845102	NOTICED	-0.1396589
-3.9845102	SHAPES	-0.18178906
-3.8389251	FORMS	-0.1396589
-3.7300825	TALKED	-0.5462027
-3.4543738	HAND	-0.2690053
-4.2037864	SIDEWAYS	-0.1396589
-3.2226567	SIDE	-0.3098633
-4.2037864	DIRECTIONS	-0.1396589
-4.2037864	REMINDS	-0.1396589
-3.3627102	STRAIGHT	-0.1991894
-4.2037864	PALM	-0.1396589
-3.6431246	H	-0.18815571
-3.2870622	CONNECTED	-0.34065345
-4.2037864	ARROWS	-0.1396589
-4.2037864	FORTH	-0.1396589
-4.090559	BRANCH	-0.1396589
-4.090559	HOUSE	-0.17302972
-3.5086567	STUCK	-0.25369895
-4.2037864	ENJOYED	-0.1396589
-4.2037864	CONVERSATION	-0.1396589
-4.2037864	BRONCHI	-0.1396589
-3.9845102	DIAPHRAGM	-0.1396589
-4.090559	TRACHEA	-0.1396589
-3.9845102	THROUGHOUT	-0.19679238
-4.090559	TUBES	-0.1396589
-3.323241	FLOWS	-0.2828018
-3.323241	E	-0.18225256
-3.1937141	NUMBER	-0.25067115
-3.7300825	LETTER	-0.16728678
-3.2226567	WHILE	-0.40973708
-3.9845102	TURTLE	-0.1396589
-4.2037864	HORSE	-0.1396589
-4.2037864	STINKS	-0.1396589
-4.2037864	LIVES	-0.1396589
-3.3627102	DRY	-0.22166745
-3.9845102	CAMOUFLAGE	-0.1396589
-3.8389251	TREES	-0.1396589
-4.2037864	BRANCHES	-0.1396589
-3.6431246	DIRT	-0.18815571
-4.090559	HAWK	-0.1396589
-4.090559	FISH	-0.1396589
-4.2037864	BLENDS	-0.1396589
-4.2037864	BACKGROUND	-0.1396589
-3.570707	WHATEVER	-0.22870636
-4.2037864	DUCKS	-0.1396589
-4.2037864	PADDLE	-0.1396589
-3.2226567	FASTER	-0.28641784
-4.090559	BITE	-0.1396589
-4.2037864	YUMMY	-0.1396589
-4.2037864	TUMMY	-0.1396589
-4.2037864	SNATCH	-0.1396589
-4.2037864	CLAW	-0.1396589
-4.2037864	ANTENNAS	-0.1396589
-4.2037864	POKE	-0.1396589
-4.090559	PATTERN	-0.1396589
-3.5086567	TOLD	-0.2488778
-4.2037864	RATTLES	-0.1396589
-4.2037864	SCARES	-0.1396589
-4.2037864	BARNEY	-0.1396589
-4.090559	LISTEN	-0.1396589
-4.2037864	STIMULATION	-0.1396589
-3.4061282	WORKS	-0.15219223
-4.090559	SPRAYS	-0.1396589
-3.7300825	RAISE	-0.16728678
-3.6431246	REACT	-0.25590652
-3.9845102	SEES	-0.1396589
-4.2037864	JUMP	-0.1396589
-4.090559	BIRD	-0.19679238
-3.9845102	FLY	-0.1396589
-4.2037864	REFLEX	-0.1396589
-3.8389251	PULL	-0.19679238
-4.2037864	AFRAID	-0.1396589
-4.090559	REACTING	-0.1396589
-4.2037864	FLYING	-0.1396589
-3.9845102	INSTINCTUAL	-0.18178906
-3.6431246	LEARN	-0.20356464
-3.3627102	ALREADY	-0.16578804
-3.4061282	HER	-0.18731368
-4.2037864	KNEE	-0.1396589
-4.2037864	HURTS	-0.1396589
-3.116924	SHE	-0.20262206
-3.7300825	HURT	-0.20917976
-4.2037864	DOCTOR	-0.1396589
-4.090559	BORN	-0.1396589
-3.9845102	WRITE	-0.1396589
-4.090559	TURTLES	-0.2284496
-3.7300825	WALKING	-0.1632307
-4.2037864	SHORE	-0.1396589
-3.9845102	CAT	-0.1396589
-4.2037864	FELL	-0.1396589
-3.9845102	TREE	-0.18178906
-3.9845102	INSTINCTIVE	-0.1396589
-3.9845102	SOMEWHERE	-0.1396589
-3.323241	WANT	-0.4220372
-4.2037864	SAVE	-0.1396589
-4.2037864	THEMSELVES	-0.1396589
-2.82193	PUT	-0.38363904
-2.9143698	FOUR	-0.2112564
-4.090559	LEGS	-0.1396589
-4.090559	FALL	-0.1396589
-3.1665804	TURN	-0.24471849
-3.2226567	POWER	-0.20218015
-4.090559	ENGINE	-0.1396589
-4.090559	CLICKED	-0.18178906
-3.3627102	KINDA	-0.1396589
-3.5086567	EARTH	-0.17899916
-3.8389251	MOUNTAIN	-0.17302972
-3.9845102	NICE	-0.19679238
-4.090559	MEET	-0.1396589
-3.6431246	CHEMICALS	-0.19679238
-3.9845102	HYDROSPHERE	-0.1396589
-3.9845102	ATMOSPHERE	-0.19679238
-3.9845102	GEOSPHERE	-0.1396589
-3.3627102	WIND	-0.18178906
-4.2037864	BLOW	-0.1396589
-3.5086567	STRONG	-0.20009173
-3.5086567	FEEL	-0.1396589
-4.2037864	CHEESEBURGER	-0.1396589
-4.2037864	FRENCH	-0.1396589
-4.2037864	FRIES	-0.1396589
-4.2037864	LETTUCE	-0.1396589
-3.9845102	BREAD	-0.1396589
-3.0516932	EVEN	-0.25629875
-4.090559	OIL	-0.1396589
-3.5086567	BAD	-0.23529468
-3.8389251	FORGOT	-0.15602387
-3.9845102	HI	-0.17584321
-4.090559	PINE	-0.2284496
-4.090559	CONE	-0.1396589
-3.6431246	PHOTOSYNTHESIS	-0.3472
-2.8591664	EACH	-0.24781112
-3.9845102	MUSHROOMS	-0.17302972
-3.5086567	ALMOST	-0.1396589
-3.3627102	EXCEPT	-0.2488384
-4.090559	VENUS	-0.1396589
-4.2037864	TRAPS	-0.1396589
-3.2870622	NOTHING	-0.20391808
-3.570707	ELSE	-0.21535872
-3.8389251	LEVEL	-0.1396589
-4.2037864	LAKES	-0.1396589
-3.570707	HIM	-0.1396589
-4.2037864	NUTRITION	-0.1396589
-3.2870622	UHM	-0.16323067
-4.2037864	DORMANCY	-0.1396589
-4.090559	SUGAR	-0.15788089
-4.2037864	GRAHAM	-0.1396589
-4.090559	CRACKER	-0.1396589
-3.8389251	FUNGI	-0.16728678
-3.1937141	PLACE	-0.24199651
-3.7300825	FLOATING	-0.24084952
-4.090559	OCEAN	-0.19679238
-4.2037864	SUITABLE	-0.1396589
-4.090559	WILTED	-0.1396589
-4.2037864	DRIED	-0.1396589
-4.2037864	AHS	-0.1396589
-3.9845102	BASIC	-0.17302972
-4.2037864	FUNCTIONS	-0.1396589
-3.7300825	YEP	-0.2470098
-4.2037864	COOKED	-0.1396589
-4.2037864	CELLED	-0.1396589
-3.9845102	LEG	-0.1396589
-4.090559	CONTRACT	-0.1396589
-4.2037864	WALK	-0.1396589
-4.090559	CONTRAST	-0.1396589
-3.9845102	EXPAND	-0.1396589
-3.4543738	YOU'D	-0.15325321
-3.570707	CUT	-0.1632307
-3.323241	SOMETIMES	-0.2359649
-4.2037864	REPAIR	-0.1396589
-3.6431246	LARGER	-0.20009173
-4.2037864	DISPOSE	-0.1396589
-4.2037864	ALLOWING	-0.1396589
-3.7300825	PUSHES	-0.19679238
-3.7300825	MOVES	-0.1632307
-3.9845102	BROKEN	-0.1396589
-4.2037864	NUT	-0.1396589
-4.2037864	BUNDLES	-0.1396589
-3.6431246	RUNNING	-0.20802787
-3.9845102	MAINLY	-0.19679238
-3.9845102	VEIN	-0.1396589
-4.090559	CENTERED	-0.1396589
-3.8389251	SPREADING	-0.18178906
-4.2037864	SENT	-0.1396589
-4.2037864	DIAGRAPH	-0.1396589
-3.8389251	SEND	-0.1396589
-4.090559	LABELLED	-0.1396589
-3.9845102	CARRY	-0.17302972
-3.6431246	F	-0.1396589
-3.7300825	REPRESENTS	-0.17302972
-4.090559	GUY	-0.1396589
-3.031959	HERE	-0.3407252
-3.570707	HE'S	-0.1698878
-4.090559	CALM	-0.1396589
-4.090559	SLAPPING	-0.1396589
-3.570707	PIECE	-0.23870397
-3.7300825	GRAPE	-0.2674467
-4.090559	FALLEN	-0.1396589
-4.090559	JUMPING	-0.2284496
-4.2037864	RESPONSE	-0.1396589
-3.8389251	POINTS	-0.18178906
-4.2037864	CENTRAL	-0.1396589
-3.8389251	NERVOUS	-0.44929275
-4.2037864	RESPONDS	-0.1396589
-4.2037864	DEFENDING	-0.1396589
-4.2037864	TERRITORY	-0.1396589
-4.090559	BEHAVIOR	-0.1396589
-4.2037864	WOLF	-0.1396589
-3.9845102	KNOWS	-0.1396589
-4.090559	HIDE	-0.1396589
-4.090559	REMOVE	-0.1396589
-4.2037864	FLESH	-0.1396589
-4.2037864	CRAWLING	-0.1396589
-4.2037864	BEHAVIOUR	-0.1396589
-3.8389251	FALLING	-0.1396589
-4.2037864	STEEP	-0.1396589
-3.2536664	BREAK	-0.30705807
-4.2037864	FACE	-0.1396589
-3.6431246	HAPPENS	-0.1396589
-4.090559	BUNNY	-0.1396589
-4.2037864	BUGS	-0.1396589
-4.090559	BIRDS	-0.1396589
-3.7300825	PLEASE	-0.18815571
-3.4543738	REPEAT	-0.24899766
-3.8389251	FINE	-0.17302972
-3.072367	MEASURE	-0.24399102
-4.090559	TOY	-0.1396589
-3.4061282	DISSOLVING	-0.26085156
-3.9845102	COOKIE	-0.24084952
-3.4061282	MOLECULES	-0.22870636
-3.8389251	EXACT	-0.17690097
-3.9845102	HONESTLY	-0.1396589
-4.2037864	CRYING	-0.1396589
-3.9845102	LOUD	-0.1396589
-4.2037864	UNDERGROUND	-0.1396589
-3.9845102	PERFECT	-0.1396589
-3.7300825	GROWING	-0.18815571
-4.2037864	BROADENED	-0.1396589
-3.8389251	HOLDS	-0.1396589
-4.090559	CLUE	-0.1396589
-3.141043	AGAIN	-0.36583298
-3.116924	MARNIE	-0.37246025
-4.2037864	PURSUING	-0.1396589
-3.8389251	BEE	-0.1396589
-4.2037864	BRAINS	-0.1396589
-3.8389251	BRINGS	-0.1396589
-4.2037864	BINGS	-0.1396589
-4.2037864	LUNGEE	-0.1396589
-3.9845102	CORD	-0.1396589
-4.2037864	ANUS	-0.1396589
-3.6431246	LOOKING	-0.18815571
-3.4543738	GIVES	-0.1698878
-3.570707	KEEPS	-0.15788089
-3.4543738	WORKING	-0.26649493
-3.8389251	EYES	-0.17302972
-4.2037864	HOUSES	-0.1396589
-4.2037864	MUSHROOM	-0.1396589
-4.090559	HATE	-0.1396589
-4.2037864	OWL	-0.1396589
-4.2037864	BEETLE	-0.1396589
-4.090559	LIZARD	-0.1396589
-4.2037864	CATERPILLARS	-0.1396589
-4.2037864	ROLY	-0.1396589
-4.2037864	POLY	-0.1396589
-4.2037864	BEETLES	-0.1396589
-3.4543738	SOIL	-0.26840055
-4.2037864	FAT	-0.1396589
-3.6431246	OUTSIDE	-0.16728678
-2.8858914	PAPER	-0.4044901
-3.7300825	REMEMBER	-0.27495262
-3.2226567	CALLED	-0.16213103
-4.2037864	FLOPS	-0.1396589
-4.090559	WORSE	-0.1396589
-4.2037864	REST	-0.1396589
-4.2037864	BODY'S	-0.1396589
-3.4543738	BECOMES	-0.19854096
-4.2037864	BLOODSTREAM	-0.1396589
-3.5086567	IT'D	-0.27495262
-3.072367	EITHER	-0.18218388
-4.2037864	EEE	-0.1396589
-3.8389251	HMM	-0.16213103
-4.2037864	PROTECTS	-0.1396589
-4.090559	PREY	-0.2284496
-3.2536664	HIS	-0.17690097
-3.1665804	HE	-0.15385401
-4.2037864	SPRAY	-0.1396589
-4.2037864	DEPENDS	-0.1396589
-3.9845102	TAUGHT	-0.1396589
-4.2037864	WHENEVER	-0.1396589
-3.072367	D	-0.36199254
-4.2037864	CORDS	-0.1396589
-2.6097562	LIGHT	-0.43627346
-3.4543738	BULB	-0.18340595
-3.9845102	DIRECTION	-0.18178906
-3.4061282	NEGATIVE	-0.30075476
-3.9845102	TERMINAL	-0.18178906
-3.8389251	POWERING	-0.18178906
-3.7300825	MOTORS	-0.1396589
-3.323241	BATTERIES	-0.20223841
-3.4543738	SOLAR	-0.22313996
-4.2037864	PANELS	-0.1396589
-3.8389251	CREATING	-0.1396589
-3.2870622	CIRCUITS	-0.30960807
-3.570707	SWITCH	-0.20411679
-3.6431246	NAIL	-0.17645709
-4.2037864	ALLOWS	-0.1396589
-3.141043	FLOW	-0.2866433
-2.9776263	WIRE	-0.29886067
-3.8389251	MOTOR	-0.16532323
-3.4543738	SOURCE	-0.2450753
-3.8389251	LATER	-0.1396589
-4.2037864	ADIOS	-0.1396589
-4.2037864	AMIGOS	-0.1396589
-3.323241	SERIES	-0.43770376
-3.0940742	CIRCUIT	-0.35577357
-4.2037864	DISCOVERING	-0.1396589
-3.7300825	PATHWAY	-0.21376128
-2.9776263	MAGNETS	-0.32595092
-3.3627102	OBJECTS	-0.20680143
-3.8389251	ATTRACTS	-0.16728678
-4.2037864	RIPPLES	-0.1396589
-3.6431246	CONNECT	-0.2593621
-3.031959	MAGNET	-0.25389573
-2.82193	STICK	-0.4403389
-3.031959	IRON	-0.37285247
-3.0516932	STEEL	-0.4005269
-3.9845102	SCREW	-0.19679238
-3.7300825	STICKING	-0.28920805
-3.7300825	ALUMINIUM	-0.17302972
-4.2037864	GREY	-0.1396589
-3.5086567	ROCK	-0.1755144
-3.8389251	BLACK	-0.1396589
-4.2037864	TRACES	-0.1396589
-2.8858914	METAL	-0.2742305
-3.8389251	MAY	-0.1632307
-3.2870622	NORTH	-0.39775872
-3.6431246	SOUTH	-0.2508746
-3.6431246	POLES	-0.1396589
-3.9845102	PERMANENT	-0.18178906
-3.7300825	CLOSE	-0.1396589
-3.8389251	TOUCHES	-0.2284496
-3.8389251	TURNING	-0.18178906
-3.4061282	TEMPORARY	-0.44755828
-3.9845102	TAKEN	-0.1396589
-3.570707	ANYMORE	-0.23727037
-3.323241	MAGNETISM	-0.20602663
-4.2037864	TROUGH	-0.1396589
-3.2536664	MAGNETIC	-0.2997282
-3.8389251	FIELD	-0.15451042
-3.6431246	DISTANCE	-0.15451042
-3.6431246	FORCE	-0.19390474
-3.9845102	WEAKER	-0.1396589
-4.090559	POSITION	-0.1396589
-3.570707	TOUCHING	-0.29700172
-4.2037864	ELECTRO	-0.1396589
-3.7300825	FOREVER	-0.36722457
-3.5086567	POSITIVE	-0.27140424
-3.4061282	CLOSED	-0.27009952
-3.1937141	BATTERY	-0.29157418
-3.141043	WIRES	-0.27945825
-3.7300825	STORED	-0.36722457
-3.4061282	LIGHTING	-0.19390474
-3.7300825	SAYS	-0.1602133
-4.2037864	STORES	-0.1396589
-3.5086567	FORM	-0.17690097
-4.090559	LEAD	-0.1396589
-2.7876356	ELECTRICITY	-0.35708457
-3.8389251	BULBS	-0.1803919
-3.3627102	RESULTS	-0.1755144
-4.090559	SHINES	-0.1396589
-3.570707	PLUS	-0.1632307
-3.9845102	SIGN	-0.1396589
-3.8389251	MINUS	-0.1396589
-3.6431246	TOWARDS	-0.625384
-3.7300825	DOTS	-0.15788089
-3.9845102	SWITCHED	-0.19679238
-4.090559	CASING	-0.1396589
-3.9845102	BASE	-0.19679238
-3.5086567	SHINE	-0.18731368
-3.570707	CONDUCTORS	-0.22472604
-3.7300825	INSULATORS	-0.17690097
-3.9845102	CLOSES	-0.1396589
-3.570707	OBJECT	-0.28009665
-3.8389251	CANDLE	-0.18249996
-4.2037864	MOUNTS	-0.1396589
-3.5086567	WAX	-0.2211179
-4.2037864	TRIPS	-0.1396589
-4.2037864	SIZZLING	-0.1396589
-4.2037864	CRACKLING	-0.1396589
-4.090559	FLAME	-0.18178906
-3.8389251	GIVING	-0.19679238
-3.0130827	HOT	-0.38045615
-4.2037864	DRUMMING	-0.1396589
-3.9845102	HANDS	-0.18178906
-3.2870622	MOVING	-0.15523045
-3.6431246	HITTING	-0.20009173
-4.090559	DRUM	-0.1396589
-3.7300825	NOISE	-0.32003078
-3.9845102	GIRL	-0.17302972
-4.2037864	HIKING	-0.1396589
-4.2037864	VIBRATES	-0.1396589
-3.9845102	APPLES	-0.1396589
-4.090559	CABINET	-0.1396589
-3.3627102	WOOD	-0.23574936
-3.323241	CONTAINER	-0.23574936
-3.8389251	CLOUDY	-0.18178906
-3.0130827	LESS	-0.35959277
-3.8389251	POLLUTION	-0.18178906
-3.8389251	RENEWABLE	-0.17302972
-3.4061282	COAL	-0.33854333
-3.8389251	GASOLINE	-0.18178906
-3.7300825	DIMMER	-0.1396589
-3.4061282	BRIGHTER	-0.4811679
-3.7300825	PATHWAYS	-0.18178906
-4.090559	SHINING	-0.1396589
-4.090559	SHARING	-0.1396589
-4.090559	SUPERCONDUCTORS	-0.1396589
-3.9845102	REFRIGERATOR	-0.1396589
-4.2037864	COPPER	-0.1396589
-3.5086567	STRAW	-0.236978
-3.3627102	SPONGE	-0.22415178
-4.090559	WOODEN	-0.1396589
-3.8389251	BLOCK	-0.17302972
-4.090559	BAR	-0.1396589
-3.6431246	REPEL	-0.2284496
-3.9845102	REPELLING	-0.18178906
-3.7300825	ATTRACTING	-0.17690097
-4.2037864	FOLLOWING	-0.1396589
-4.090559	COMPASS	-0.1396589
-4.2037864	COMPRESS	-0.1396589
-4.2037864	DIRECTING	-0.1396589
-4.090559	MAGNETIZED	-0.1396589
-4.090559	TOWARD	-0.2284496
-4.090559	POLE	-0.1396589
-4.090559	MAGNETIZING	-0.2284496
-3.9845102	PAPERCLIP	-0.15788089
-4.2037864	MAGNETISE	-0.1396589
-3.1665804	HOLD	-0.26890308
-3.141043	WASHERS	-0.2271353
-4.2037864	ADDS	-0.1396589
-3.2226567	ADD	-0.22133115
-3.4061282	SPACERS	-0.2450753
-3.2536664	BETWEEN	-0.2258159
-4.090559	PUTS	-0.1396589
-3.6431246	FARTHER	-0.1396589
-3.6431246	INCREASES	-0.28920805
-3.4543738	STRONGER	-0.36210278
-3.9845102	CURRENTS	-0.1396589
-3.8389251	PROVIDES	-0.1396589
-3.5086567	POINT	-0.1396589
-3.7300825	COMPLETE	-0.15788089
-4.090559	PIE	-0.1396589
-4.090559	REASON	-0.1396589
-3.570707	ELECTRIC	-0.24750325
-3.570707	TRAVEL	-0.1396589
-3.8389251	RECEIVER	-0.25590652
-3.8389251	RECEIVES	-0.24084952
-3.570707	END	-0.19956909
-4.2037864	REVERSES	-0.1396589
-3.8389251	COMPONENTS	-0.1396589
-4.090559	CURRENT	-0.1396589
-4.2037864	CREEPY	-0.1396589
-4.2037864	TERMINALS	-0.1396589
-3.9845102	SPIN	-0.19679238
-4.090559	LEVER	-0.18178906
-3.9845102	PULLED	-0.1396589
-3.2536664	INSTEAD	-0.99336076
-4.2037864	PANEL	-0.1396589
-4.2037864	FLAG	-0.1396589
-3.4061282	STOPS	-0.1991894
-4.2037864	SUNS	-0.1396589
-4.090559	RISING	-0.1396589
-3.4061282	STOP	-0.190844
-4.2037864	RUNS	-0.1396589
-4.2037864	GOD	-0.1396589
-4.2037864	PROPERLY	-0.1396589
-3.9845102	ALLOWED	-0.27031457
-3.8389251	COMPLETELY	-0.1396589
-4.090559	CONDUCTOR	-0.1396589
-3.8389251	INSULATOR	-0.20561711
-3.7300825	BRASS	-0.25590652
-3.9845102	MELTING	-0.1396589
-4.090559	OBSERVED	-0.1396589
-4.2037864	CONSTANTLY	-0.1396589
-3.9845102	FELT	-0.1396589
-3.4543738	WARM	-0.30075476
-3.7300825	FIRE	-0.2674467
-3.2536664	COMING	-0.24591534
-3.9845102	FOSSIL	-0.19679238
-3.9845102	FUELS	-0.1396589
-4.2037864	WINDMILLS	-0.1396589
-4.2037864	SMELLY	-0.1396589
-4.090559	STINKY	-0.1396589
-3.4061282	HARD	-0.30075476
-3.9845102	BREATH	-0.19679238
-4.090559	RESULT	-0.1396589
-3.4543738	BETTER	-0.17086722
-4.2037864	WASTING	-0.1396589
-4.2037864	POLLUTING	-0.1396589
-4.2037864	NON-FOSSIL	-0.1396589
-3.7300825	FUEL	-0.20009173
-4.090559	CONTACT	-0.1396589
-3.4061282	UNLESS	-0.23870397
-3.570707	TYPE	-0.51335263
-3.9845102	BYE-BYE	-0.1396589
-3.2536664	MOST	-0.2825434
-4.2037864	MICROPHONE	-0.1396589
-3.6431246	STICKS	-0.19679238
-4.2037864	PAPERCLIPS	-0.1396589
-3.8389251	THICK	-0.1396589
-3.3627102	WEIGHING	-0.16896802
-3.0130827	BIGGER	-0.27669802
-3.323241	AMOUNT	-0.37330544
-4.090559	SLIGHTLY	-0.1396589
-2.9776263	CUP	-0.26857483
-4.2037864	DIVE	-0.1396589
-4.2037864	FIELDS	-0.1396589
-4.2037864	WASHES	-0.1396589
-3.9845102	RIVET	-0.17461771
-3.6431246	WRAP	-0.17302972
-4.2037864	CHARGE	-0.1396589
-3.5086567	OPEN	-0.190844
-3.1665804	PICK	-0.5213047
-3.4543738	DROPS	-0.1698878
-3.8389251	WASHER	-0.32003078
-3.8389251	PICKS	-0.44929275
-3.6431246	DONE	-0.15219223
-3.7300825	AREA	-0.1396589
-3.4543738	WRAPPED	-0.43199775
-3.4543738	TURNED	-0.19390474
-3.7300825	ELECTROMAGNET	-0.17723492
-4.2037864	POSITON	-0.1396589
-4.2037864	ELECTRO-MAGNET	-0.1396589
-4.2037864	SUMMARY	-0.1396589
-4.2037864	ELECTROMAGNETISM	-0.1396589
-3.8389251	UNDERSTAND	-0.18815571
-3.3627102	SAID	-0.18249996
-3.4543738	MUST	-0.24410222
-4.2037864	EXPLODE	-0.1396589
-4.090559	SETUP	-0.1396589
-4.090559	SIMPLE	-0.1396589
-3.2226567	CHANGED	-0.19830206
-4.2037864	POSITIONS	-0.1396589
-4.2037864	LIGHTED	-0.1396589
-3.8389251	LIT	-0.18178906
-3.6431246	FAR	-0.20311941
-2.9143698	HAD	-0.23898397
-4.2037864	CHANCE	-0.1396589
-3.7300825	POWERED	-0.36722457
-4.2037864	SLOW	-0.1396589
-4.090559	CLICK	-0.2284496
-3.323241	ONCE	-0.1512849
-4.2037864	STATE	-0.1396589
-3.570707	CANNOT	-0.19679238
-3.4543738	MATERIALS	-0.17302972
-3.6431246	CONDUCT	-0.19679238
-4.2037864	METALLIC	-0.1396589
-4.2037864	NOR	-0.1396589
-4.2037864	DEVICE	-0.1396589
-3.7300825	DARK	-0.22226125
-4.2037864	BACKWARDS	-0.1396589
-3.2226567	LONGER	-0.22081733
-3.2226567	OKAY	-0.23690742
-3.9845102	CREATE	-0.1396589
-3.8389251	BRIGHTLY	-0.27031457
-3.8389251	WRONG	-0.1396589
-3.9845102	BORING	-0.1396589
-3.4061282	THOUGH	-0.3178852
-3.9845102	ASKING	-0.1396589
-3.9845102	D-CELL	-0.18178906
-3.6431246	SIDES	-0.1698878
-3.6431246	PATH	-0.18815571
-3.570707	WAYS	-0.22870636
-4.090559	BOY	-0.17302972
-3.4543738	ANSWER	-0.21997751
-4.2037864	BRIGHTNESS	-0.1396589
-3.8389251	TESTING	-0.1396589
-4.090559	HELLO	-0.1632307
-4.2037864	ROD	-0.1396589
-3.4543738	APART	-0.39835253
-4.2037864	COMBINATIONS	-0.1396589
-3.5086567	ROOM	-0.24750325
-4.090559	LARGE	-0.1396589
-4.090559	REQUIRE	-0.1396589
-4.2037864	MISTAKE	-0.1396589
-3.9845102	DECREASES	-0.1396589
-4.2037864	WEAKENS	-0.1396589
-3.7300825	SPINNING	-0.1632307
-3.6431246	ELECTROMAGNETS	-0.32285327
-3.9845102	SWITCHES	-0.19679238
-4.090559	PROVIDE	-0.2284496
-4.2037864	ABILITY	-0.1396589
-4.2037864	WEAK	-0.1396589
-4.2037864	FORCES	-0.1396589
-4.2037864	LAW	-0.1396589
-3.9845102	WIDE	-0.1396589
-4.2037864	DISCS	-0.1396589
-4.2037864	ELECTROMAGNETIC	-0.1396589
-3.7300825	METALS	-0.17302972
-3.9845102	STRINGS	-0.1396589
-3.9845102	OPPOSITE	-0.16728678
-4.2037864	CONTINUES	-0.1396589
-4.2037864	LATCH	-0.1396589
-3.7300825	SUPPOSED	-0.5462027
-4.2037864	REPLACEMENT	-0.1396589
-3.7300825	COLLECT	-0.18815571
-3.570707	DAY	-0.20945473
-3.8389251	CONDUCTS	-0.27031457
-4.090559	RING	-0.1396589
-3.9845102	STARTING	-0.19679238
-4.090559	BURNED	-0.1396589
-4.2037864	MELT	-0.1396589
-4.090559	HOLDING	-0.1396589
-4.090559	WHEREVER	-0.2284496
-3.7300825	STAYS	-0.1396589
-4.090559	ALONG	-0.1396589
-4.090559	FLICKERING	-0.1396589
-3.9845102	SOUNDED	-0.18178906
-4.090559	DRINKING	-0.1396589
-3.7300825	DESK	-0.1632307
-4.2037864	LOGS	-0.1396589
-3.570707	BURN	-0.15602387
-3.3627102	LIQUID	-0.27158064
-4.2037864	WILD	-0.1396589
-4.2037864	RENEW	-0.1396589
-3.323241	ALWAYS	-0.18572803
-3.9845102	TRANSFERS	-0.1396589
-3.141043	ANOTHER	-0.15859722
-4.2037864	TRANSFERRING	-0.1396589
-4.090559	TRANSFER	-0.1396589
-3.9845102	EVIDENCE	-0.19679238
-4.2037864	BATTER	-0.1396589
-4.090559	FILAMENT	-0.16728678
-4.2037864	DIMLY	-0.1396589
-3.9845102	BURNT	-0.19679238
-3.2536664	EIGHT	-0.21704657
-4.090559	RECEIVE	-0.1396589
-4.2037864	LIGHTBULB	-0.1396589
-4.2037864	CONTINUE	-0.1396589
-4.2037864	THERE'RE	-0.1396589
-3.4543738	ENDS	-0.17690097
-3.9845102	NAILS	-0.1396589
-4.2037864	YARN	-0.1396589
-4.2037864	WOODBLOCK	-0.1396589
-4.2037864	THINS	-0.1396589
-4.2037864	ATTACK	-0.1396589
-4.2037864	FOLLOW	-0.1396589
-4.2037864	WHICHEVER	-0.1396589
-4.090559	SORTS	-0.1396589
-4.090559	CHECK	-0.1396589
-3.8389251	TABLE	-0.1396589
-4.090559	CHAIR	-0.1396589
-3.8389251	BEST	-0.1396589
-4.2037864	GONE	-0.1396589
-3.2870622	EVERY	-0.37330544
-4.2037864	DOUBLE	-0.1396589
-4.2037864	RINGS	-0.1396589
-3.1665804	EQUAL	-0.2470098
-4.2037864	PAST	-0.1396589
-3.9845102	STACK	-0.19679238
-4.2037864	PAPERS	-0.1396589
-3.6431246	YOU'VE	-0.1396589
-3.0130827	HEAVIER	-0.43743953
-4.090559	TAKES	-0.1396589
-4.090559	LOSER	-0.2284496
-4.090559	FINALLY	-0.1396589
-3.5086567	LEFT	-0.16578804
-4.090559	SPACER	-0.1396589
-3.3627102	SEPARATING	-0.22663383
-3.8389251	PUSHING	-0.2284496
-2.8998973	WERE	-0.2070264
-4.090559	CHOOSE	-0.1396589
-3.9845102	COILS	-0.1396589
-3.7300825	BECOME	-0.17302972
-3.0940742	MIXTURES	-0.41027826
-3.5086567	MIXTURE	-0.287754
-3.2226567	SEPARATED	-0.36591998
-4.090559	WINDOW	-0.1396589
-4.090559	THINGY	-0.2284496
-3.6431246	SCREEN	-0.21755831
-4.090559	MARBLES	-0.1396589
-3.5086567	DISSOLVE	-0.29242656
-3.8389251	ITEM	-0.1396589
-3.570707	QUITE	-0.15788089
-3.9845102	COMPONENT	-0.2284496
-3.5086567	FILTER	-0.23201677
-4.2037864	FUNNEL	-0.1396589
-4.2037864	HOLDER	-0.1396589
-3.570707	POWDER	-0.30300516
-3.4543738	SEPARATE	-0.27007174
-3.072367	SALT	-0.31658426
-3.1665804	WENT	-0.29505596
-3.6431246	EVAPORATED	-0.18815571
-3.9845102	SAND	-0.15602387
-3.7300825	SALTS	-0.1396589
-3.2870622	MASS	-0.26431942
-4.2037864	TERM	-0.1396589
-3.116924	MIXED	-0.35505977
-2.810195	SOLUTION	-0.40735248
-3.5086567	CLEAR	-0.1396589
-3.3627102	EVAPORATING	-0.23574936
-4.2037864	THUS	-0.1396589
-3.5086567	EVAPORATE	-0.19867465
-3.5086567	HEAVY	-0.26649493
-4.2037864	REEVAPORATE	-0.1396589
-4.090559	COLLECTING	-0.2284496
-4.2037864	MAGNETISED	-0.1396589
-3.4061282	ITEMS	-0.15451042
-3.5086567	GRAVEL	-0.18582976
-4.090559	TRAY	-0.1396589
-4.090559	HOPE	-0.19679238
-2.7558522	TEN	-0.25493872
-2.6724536	GRAMS	-0.4290455
-3.3627102	LIGHTER	-0.20356464
-3.6431246	DRINK	-0.1632307
-3.3627102	CONCENTRATED	-0.30451497
-4.090559	THIRD	-0.1396589
-3.3627102	B	-0.21534333
-4.2037864	HEAVIEST	-0.1396589
-3.7300825	FLOAT	-0.16728678
-3.3627102	SINK	-0.27746645
-3.2870622	SOLUTIONS	-0.31134614
-3.0940742	MIX	-0.31499362
-3.7300825	MIXING	-0.19679238
-3.9845102	X	-0.1632307
-4.2037864	EXPENSIVE	-0.1396589
-3.7300825	SHOULD	-0.15325321
-3.0130827	FIFTY	-0.31471875
-3.031959	MILLILITERS	-0.3244708
-3.4543738	SOLUTE	-0.39002582
-3.7300825	SCOOPS	-0.16728678
-3.6431246	EPSOM	-0.51335263
-3.4061282	DISSOLVED	-0.40861726
-3.6431246	WATER'S	-0.1396589
-4.2037864	HANDLE	-0.1396589
-3.4061282	SORRY	-0.19679238
-3.2870622	WEIGHS	-0.24169885
-3.7300825	MARNEY	-0.24084952
-3.5086567	TOOK	-0.19834192
-4.090559	CRYSTAL	-0.1396589
-4.2037864	DESIGNS	-0.1396589
-3.9845102	CHART	-0.1396589
-3.6431246	ANSWERS	-0.2674467
-3.6431246	CRYSTALS	-0.32003078
-3.2226567	BAKING	-0.77232844
-3.570707	SODA	-0.1632307
-3.9845102	VINEGAR	-0.1632307
-4.2037864	BUBBLY	-0.1396589
-3.570707	PRODUCT	-0.23084748
-3.9845102	FIZZING	-0.1396589
-3.9845102	BUBBLING	-0.18178906
-4.090559	MIDDLE	-0.15451042
-3.4543738	YELLOW	-0.20934014
-3.6431246	NUMBERS	-0.17690097
-3.7300825	CALCIUM	-0.5462027
-4.090559	CHLORIDE	-0.1396589
-4.2037864	PARTICIPATION	-0.1396589
-4.090559	PARTICIPATE	-0.2284496
-3.8389251	ACID	-0.22472604
-4.090559	SODIUM	-0.1396589
-3.4061282	BUBBLES	-0.17302972
-3.2226567	ICE	-0.304479
-4.090559	MELTED	-0.1396589
-4.090559	SEEMS	-0.1396589
-3.9845102	STAYED	-0.1396589
-4.2037864	BEND	-0.1396589
-3.7300825	GLOW	-0.24084952
-3.7300825	CREATED	-0.36722457
-3.5086567	SINCE	-0.2470098
-4.090559	INCREASED	-0.1396589
-3.3627102	SIZE	-0.24641377
-3.8389251	CITRIC	-0.44929275
-4.2037864	OPENED	-0.1396589
-4.090559	PEANUTS	-0.1396589
-4.090559	RAISINS	-0.1396589
-4.090559	TRAIL	-0.2284496
-4.2037864	IMMENSE	-0.1396589
-4.2037864	LANDING	-0.1396589
-4.2037864	BOWL	-0.1396589
-4.090559	STAYING	-0.1396589
-3.7300825	POURED	-0.20945473
-4.2037864	DIRTY	-0.1396589
-3.4061282	WET	-0.15451042
-4.2037864	CHIPS	-0.1396589
-4.2037864	CLIPS	-0.1396589
-3.3627102	DISSOLVES	-0.27001107
-3.4061282	DARKER	-0.2324648
-4.2037864	SUNK	-0.1396589
-3.3627102	ADDED	-0.27145112
-4.2037864	FLOUR	-0.1396589
-3.9845102	SINKS	-0.19679238
-4.090559	BECOMING	-0.1396589
-3.4061282	EVAPORATION	-0.18572803
-3.6431246	ROCKS	-0.17899916
-3.6431246	ABOVE	-0.19679238
-3.9845102	WANTED	-0.19679238
-3.9845102	BEHIND	-0.1396589
-3.570707	GRAPETASTIC	-0.1632307
-3.4543738	CUPS	-0.25879374
-3.6431246	DILUTED	-0.19679238
-4.2037864	THICKER	-0.1396589
-4.2037864	GRAPEY	-0.1396589
-4.090559	DENSER	-0.1396589
-3.570707	DENSE	-0.2477954
-3.9845102	EXPLAIN	-0.24084952
-4.090559	MIXES	-0.1396589
-4.2037864	CAPTIONS	-0.1396589
-4.2037864	UNDERNEATH	-0.1396589
-4.090559	STACKED	-0.1396589
-4.090559	BOTTLE	-0.1396589
-3.9845102	READING	-0.1396589
-3.0940742	GRAM	-0.39302677
-3.9845102	WEIGHTS	-0.1396589
-4.090559	EMPTY	-0.2284496
-4.2037864	SOMETHINGS	-0.1396589
-4.090559	SOLIDS	-0.1396589
-4.090559	FIZZES	-0.1396589
-3.7300825	PARTICLES	-0.20945473
-4.2037864	LOOSER	-0.1396589
-4.2037864	TIGHTER	-0.1396589
-4.2037864	LAYER	-0.1396589
-4.2037864	GRAY	-0.1396589
-4.2037864	SKIP	-0.1396589
-3.031959	CHANGE	-0.28224224
-3.4061282	FULL	-0.20443606
-3.9845102	SPOON	-0.1396589
-4.090559	PRONOUNCE	-0.1396589
-3.8389251	CLOSER	-0.18178906
-4.2037864	MICKEY	-0.1396589
-3.8389251	MOUSE	-0.18178906
-4.090559	HEADS	-0.1396589
-4.2037864	OUTER	-0.1396589
-4.2037864	CUBES	-0.1396589
-3.9845102	LIQUIDS	-0.1396589
-4.090559	OCCURING	-0.2284496
-3.1665804	COLOR	-0.26532444
-3.8389251	CHANGING	-0.1396589
-3.4061282	STARTED	-0.2796594
-4.090559	ENDED	-0.1396589
-4.090559	RUSTING	-0.1396589
-4.2037864	REACTS	-0.1396589
-4.2037864	WETNESS	-0.1396589
-4.2037864	RUSTS	-0.1396589
-4.090559	SOMEBODY	-0.1396589
-4.090559	DYE	-0.1396589
-3.4543738	DROP	-0.19390474
-4.2037864	BLOWING	-0.1396589
-3.8389251	PRODUCTS	-0.1396589
-3.9845102	GASSES	-0.1396589
-4.2037864	BLEW	-0.1396589
-3.8389251	REACTIONS	-0.1396589
-3.570707	EQUALS	-0.28920805
-4.090559	SALAD	-0.1396589
-4.2037864	PILES	-0.1396589
-4.2037864	PILE	-0.1396589
-4.2037864	SANDS	-0.1396589
-3.4543738	HIGHER	-0.2624633
-4.2037864	SALTED	-0.1396589
-3.4543738	MATERIAL	-0.20561711
-3.2226567	ONE'S	-0.18218388
-4.2037864	BROWNISH	-0.1396589
-3.4543738	FIFTEEN	-0.15325321
-4.090559	COMPARED	-0.2284496
-3.072367	WEIGH	-0.23133028
-4.090559	PROPERTY	-0.2284496
-4.2037864	SPLIT	-0.1396589
-4.090559	CONSIDERED	-0.2284496
-3.8389251	EVAPORATES	-0.15788089
-4.2037864	DISAPPEARING	-0.1396589
-4.2037864	SIGNIFICANCE	-0.1396589
-4.2037864	CLOCK	-0.1396589
-4.2037864	PASSING	-0.1396589
-4.090559	ACCORDING	-0.2284496
-3.2536664	GROUP	-0.26288816
-4.090559	ATTRACTED	-0.2284496
-3.9845102	TOOLS	-0.1396589
-3.4061282	PICKED	-0.70964724
-4.2037864	UNLIKE	-0.1396589
-4.2037864	SOFT	-0.1396589
-4.2037864	TASTED	-0.1396589
-4.2037864	SPOONFULS	-0.1396589
-4.2037864	STIRRING	-0.1396589
-4.2037864	FAMILIAR	-0.1396589
-3.8389251	AFFECT	-0.1396589
-3.8389251	BEAT	-0.1396589
-3.9845102	LEAST	-0.1396589
-4.2037864	WOLD	-0.1396589
-4.2037864	CHEESE	-0.1396589
-4.2037864	SHOT	-0.1396589
-3.8389251	BALANCE	-0.15788089
-3.9845102	PLAIN	-0.1396589
-4.2037864	JELLYBEAN	-0.1396589
-3.9845102	HIGHEST	-0.1396589
-4.2037864	LEVELS	-0.1396589
-3.9845102	SATURATION	-0.19679238
-3.9845102	SHAKE	-0.324354
-3.7300825	SATURATED	-0.36722457
-4.2037864	EXPLOSION	-0.1396589
-3.570707	SOLVENT	-0.27495262
-3.4543738	EXPERIMENT	-0.17084086
-4.2037864	VINEGARS	-0.1396589
-4.2037864	MOLECLUES	-0.1396589
-4.2037864	SODAS	-0.1396589
-4.090559	FORMED	-0.1396589
-4.2037864	MOLECLUE	-0.1396589
-4.2037864	EXPLODES	-0.1396589
-4.2037864	SOLUTES	-0.1396589
-4.090559	PARTICIPANT	-0.1396589
-4.2037864	THERE'LL	-0.1396589
-4.090559	RAINING	-0.1396589
-4.2037864	DURING	-0.1396589
-3.570707	BUBBLE	-0.20945473
-3.7300825	FIZZ	-0.25590652
-4.090559	CARBONATED	-0.2284496
-4.2037864	SLOWED	-0.1396589
-3.8389251	CONDENSATION	-0.1396589
-4.2037864	DILATATION	-0.1396589
-3.8389251	CORK	-0.1396589
-4.090559	CONSTANT	-0.1396589
-4.2037864	TRADED	-0.1396589
-4.090559	FLOATS	-0.1396589
-4.2037864	LAYERS	-0.1396589
-4.090559	DENSITY	-0.1396589
-4.2037864	SPREADOUT	-0.1396589
-3.7300825	SPREAD	-0.1396589
-4.2037864	MALL	-0.1396589
-3.9845102	HOLES	-0.19679238
-3.9845102	STAND	-0.17302972
-4.2037864	COFFEE	-0.1396589
-4.090559	COLLECTS	-0.2284496
-4.2037864	WENTS	-0.1396589
-4.2037864	MIXTURE'S	-0.1396589
-4.2037864	TASTIC	-0.1396589
-3.9845102	CALL	-0.1396589
-4.2037864	PARTICULAR	-0.1396589
-4.2037864	PLANE	-0.1396589
-4.2037864	LETTING	-0.1396589
-3.9845102	SOLVED	-0.19679238
-4.2037864	PICKING	-0.1396589
-4.2037864	SEED	-0.1396589
-3.7300825	SCREENS	-0.24084952
-3.8389251	COLORED	-0.1396589
-4.2037864	THEARPY	-0.1396589
-4.2037864	SOMETIME	-0.1396589
-4.2037864	OPINION	-0.1396589
-3.9845102	TASTE	-0.1396589
-4.2037864	AMOUNTS	-0.1396589
-4.2037864	DECISIONS	-0.1396589
-3.9845102	DIFFERENCE	-0.17302972
-3.9845102	READ	-0.1396589
-4.2037864	DILUTE	-0.1396589
-3.6431246	WORKED	-0.22226125
-4.2037864	UNSATURED	-0.1396589
-4.2037864	SCOOP	-0.1396589
-4.2037864	UNSATURATE	-0.1396589
-4.090559	ABSENT	-0.1396589
-4.2037864	DIFFERENTLY	-0.1396589
-3.9845102	SUBSTANCE	-0.1396589
-3.6431246	SQUARE	-0.25590652
-4.090559	IDENTIFY	-0.2284496
-3.9845102	REACTANT	-0.19679238
-3.6431246	REACTANTS	-0.20561711
-3.9845102	FIZZED	-0.324354
-4.2037864	BUBBLED	-0.1396589
-3.8389251	LOOKED	-0.17302972
-3.8389251	REACTANCE	-0.1396589
-4.2037864	PRECIPITATE	-0.1396589
-3.9845102	REACTED	-0.19679238
-4.2037864	REACTIVES	-0.1396589
-3.7300825	KNEW	-0.2674467
-4.2037864	TRANSPARENT	-0.1396589
-3.9845102	HAPPENED	-0.1396589
-4.2037864	WHETHER	-0.1396589
-4.2037864	OVERTIME	-0.1396589
-4.2037864	RESTS	-0.1396589
-4.2037864	TORE	-0.1396589
-3.7300825	EXPANDS	-0.25590652
-4.090559	BLOWS	-0.1396589
-3.8389251	ASK	-0.18178906
-4.2037864	CONFIRM	-0.1396589
-4.090559	LOST	-0.1396589
-4.2037864	MASSES	-0.1396589
-4.2037864	GATHERED	-0.1396589
-4.2037864	FEAR	-0.1396589
-4.2037864	BIOSPHERES	-0.1396589
-4.2037864	SALAMANDER	-0.1396589
-4.2037864	BUG	-0.1396589
-4.2037864	CONSUMES	-0.1396589
-4.2037864	REPLANTS	-0.1396589
-4.2037864	DERMIVORES	-0.1396589
-4.2037864	STATEMENT	-0.1396589
-4.2037864	DEFINITION	-0.1396589
-4.2037864	CONSUMING	-0.1396589
-3.8389251	CIRCULAR	-0.25590652
-4.2037864	ROOTS	-0.1396589
-4.2037864	HOME	-0.1396589
-3.9845102	DYING	-0.28341812
-4.2037864	DEHYDRATING	-0.1396589
-4.2037864	DEPRIVED	-0.1396589
-3.9845102	CLEAN	-0.19679238
-4.090559	BLADE	-0.1396589
-4.2037864	COTTONWOOD	-0.1396589
-3.9845102	PENNANT	-0.1396589
-3.9845102	DOG	-0.17302972
-4.2037864	IMAGE	-0.1396589
-4.2037864	ARTERIES	-0.1396589
-4.090559	ANIMATION	-0.1396589
-4.090559	TRAVELING	-0.19679238
-4.2037864	PUMPS	-0.1396589
-4.2037864	CARRIED	-0.1396589
-3.7300825	TRAVELS	-0.1396589
-4.2037864	PROPERTIES	-0.1396589
-3.8389251	SEPARATION	-0.27031457
-4.2037864	SEPERATED	-0.1396589
-4.2037864	SLEW	-0.1396589
-4.2037864	COMBINED	-0.1396589
-3.9845102	EASILY	-0.19679238
-4.090559	UNIQUE	-0.1396589
-4.090559	MERGER	-0.1396589
-4.2037864	SEQUEL	-0.1396589
-3.6431246	POUR	-0.18815571
-3.9845102	CREATES	-0.1396589
-3.6431246	FOUND	-0.23870397
-4.2037864	CASE	-0.1396589
-4.2037864	FILTERED	-0.1396589
-3.6431246	CATCH	-0.20009173
-3.9845102	DRYING	-0.19679238
-4.2037864	HOURS	-0.1396589
-3.8389251	FILTERS	-0.1396589
-4.090559	FUNNELS	-0.1396589
-4.2037864	OPTION	-0.1396589
-4.2037864	SEXY	-0.1396589
-4.2037864	EXPECT	-0.1396589
-4.090559	HARDER	-0.1396589
-4.090559	DISINTEGRATE	-0.1396589
-4.2037864	ELEMENT	-0.1396589
-4.2037864	HENCE	-0.1396589
-3.7300825	PUSH	-0.25590652
-3.9845102	USEFUL	-0.19679238
-4.2037864	VANISH	-0.1396589
-4.090559	OUTCOME	-0.1396589
-3.570707	LET'S	-0.20945473
-4.090559	WEIRD	-0.1396589
-4.2037864	PLENTY	-0.1396589
-4.090559	SATURIZED	-0.1396589
-4.2037864	SATURIZATION	-0.1396589
-4.2037864	FACES	-0.1396589
-4.2037864	VENIGAR	-0.1396589
-4.2037864	PASTE	-0.1396589
-4.2037864	IMPLIES	-0.1396589
-4.090559	PRECPITATE	-0.2284496
-4.090559	STOPPED	-0.1396589
-4.2037864	BECUSE	-0.1396589
-4.2037864	AFTERNOON	-0.1396589
-4.2037864	BIKE	-0.1396589
-4.2037864	RUST	-0.1396589
-4.090559	RAIN	-0.1396589
-4.2037864	BEG	-0.1396589
-4.2037864	DRAK	-0.1396589
-4.2037864	BROWNER	-0.1396589
-4.2037864	CHEMCICAL	-0.1396589
-4.2037864	SHAKEN	-0.1396589
-4.2037864	REACCTION	-0.1396589
-4.2037864	EFFORT	-0.1396589
-4.2037864	KEEPING	-0.1396589
-4.090559	SOMEONE	-0.1396589
-4.2037864	MET	-0.1396589
-4.2037864	PINEAPPLE	-0.1396589
-3.9845102	DIED	-0.19679238
-4.090559	FRUIT	-0.1396589
-4.2037864	DEAL	-0.1396589
-4.2037864	LITHOSPHERE	-0.1396589
-4.090559	BLAH	-0.2284496
-3.6431246	WHEAT	-0.19679238
-4.090559	SICK	-0.1396589
-4.2037864	GENIUS	-0.1396589
-4.2037864	HAMBURGERS	-0.1396589
-4.2037864	HM	-0.1396589
-3.9845102	MILLIGRAMS	-0.1396589
-4.2037864	GRAINS	-0.1396589
-4.090559	CRITIC	-0.2284496
-4.2037864	RECORDS	-0.1396589
-4.2037864	KENT	-0.1396589
-4.2037864	HREACTANT	-0.1396589
-3.9845102	IDEA	-0.1396589
-4.2037864	WEILL	-0.1396589
-3.8389251	CLOSEST	-0.27031457
-4.090559	RAY	-0.1396589
-4.2037864	FIZZLES	-0.1396589
-4.2037864	EXTENDED	-0.1396589
-4.090559	WAITED	-0.1396589
-4.2037864	FIZZLED	-0.1396589
-3.7300825	MARNI	-0.1396589
-3.7300825	TOUCH	-0.18815571
-4.2037864	ABSORBS	-0.1396589
-4.2037864	EXPELS	-0.1396589
-4.090559	CO	-0.1396589
-4.2037864	FUNCTION	-0.1396589
-4.2037864	BRONCHIA	-0.1396589
-4.2037864	BRONCHIOLE	-0.1396589
-4.2037864	ALVEOLA	-0.1396589
-4.2037864	BRONCHIOLES	-0.1396589
-4.2037864	DEEP	-0.1396589
-4.2037864	HDN	-0.1396589
-3.7300825	G	-0.1396589
-4.2037864	BEHAVE	-0.1396589
-3.9845102	BEHAVIORS	-0.18178906
-4.2037864	NECTAR	-0.1396589
-4.090559	DING	-0.2284496
-4.2037864	DONG	-0.1396589
-4.2037864	AHEAD	-0.1396589
-4.2037864	GAINS	-0.1396589
-4.090559	SUBJECT	-0.1396589
-3.323241	FIND	-0.28641784
-4.090559	MYSTERY	-0.1396589
-3.4061282	FILL	-0.43770376
-4.2037864	COOLING	-0.1396589
-4.2037864	CENTER	-0.1396589
-4.2037864	ATTRACTIVE	-0.1396589
-3.9845102	TOOL	-0.1396589
-4.090559	STIR	-0.2284496
-3.2870622	VOLUME	-0.23201677
-3.6431246	PENNY	-0.20561711
-3.9845102	ORANGE	-0.1602133
-4.2037864	HYDROXIDE	-0.1396589
-4.090559	CRACKING	-0.1396589
-4.2037864	MISSED	-0.1396589
-4.090559	LESSON	-0.1396589
-4.090559	RYAN	-0.1396589
-4.2037864	XBOX	-0.1396589
-4.2037864	MICROSOFT	-0.1396589
-4.2037864	VIEW	-0.1396589
-3.9845102	HICS	-0.1396589
-4.2037864	YELLING	-0.1396589
-4.2037864	MONEY	-0.1396589
-4.2037864	MEN	-0.1396589
-4.2037864	BUILDING	-0.1396589
-4.2037864	HABITATS	-0.1396589
-4.2037864	WORD	-0.1396589
-4.090559	HABITAT	-0.2284496
-4.2037864	NEIGHBORHOOD	-0.1396589
-4.090559	MOUNTAINS	-0.2284496
-4.2037864	SKY	-0.1396589
-4.2037864	HEMISPHERE	-0.1396589
-3.4061282	YOU'LL	-0.22870636
-3.9845102	LEBRON	-0.324354
-4.2037864	JAMES	-0.1396589
-4.2037864	COOKIES	-0.1396589
-4.2037864	WATERED	-0.1396589
-3.9845102	CLOUD	-0.18178906
-3.4543738	HAVING	-0.15788089
-4.2037864	KILL	-0.1396589
-4.090559	KILLED	-0.1396589
-4.2037864	CRUNCHED	-0.1396589
-3.9845102	GREW	-0.1396589
-4.2037864	NUTRIENT	-0.1396589
-4.090559	PUMPING	-0.1396589
-4.2037864	JAR	-0.1396589
-4.090559	CAUGHT	-0.1396589
-3.5086567	TRY	-0.38084522
-3.8389251	SET	-0.1396589
-3.8389251	SIT	-0.18178906
-4.2037864	ANNOYING	-0.1396589
-4.2037864	CATCHER	-0.1396589
-4.2037864	SHH	-0.1396589
-4.090559	WEEK	-0.1396589
-2.7262373	FIVE	-0.31931242
-3.8389251	MINUTE	-0.18178906
-3.9845102	TALK	-0.24084952
-4.2037864	TASTY	-0.1396589
-4.090559	SIMON	-0.1396589
-4.2037864	THY	-0.1396589
-4.2037864	FEATHERS	-0.1396589
-4.2037864	A'S	-0.1396589
-4.2037864	B'S	-0.1396589
-4.2037864	SENSE	-0.1396589
-4.2037864	SMART	-0.1396589
-4.2037864	FEELING	-0.1396589
-4.2037864	SAWT	-0.1396589
-4.2037864	MOLECULE	-0.1396589
-4.2037864	SETTLES	-0.1396589
-2.9609277	COLD	-0.37616238
-4.090559	CUBE	-0.1396589
-3.9845102	FREEZING	-0.1396589
-4.2037864	SWEAT	-0.1396589
-4.2037864	SWEATY	-0.1396589
-4.2037864	BECAME	-0.1396589
-4.2037864	IRRATIONAL	-0.1396589
-4.2037864	FOAMING	-0.1396589
-4.2037864	CALMED	-0.1396589
-4.2037864	FIZZY	-0.1396589
-4.090559	ALIEN	-0.1396589
-4.090559	ALRIGHT	-0.19679238
-4.090559	POTATO	-0.18178906
-4.2037864	HUMUS	-0.1396589
-4.2037864	GRAIN	-0.1396589
-4.2037864	SLIT	-0.1396589
-3.9845102	FLEW	-0.1396589
-4.2037864	PEAR	-0.1396589
-3.8389251	CARS	-0.1396589
-4.090559	REFLECT	-0.1396589
-4.2037864	UNIVERSE	-0.1396589
-4.2037864	POSSIBLY	-0.1396589
-4.090559	RELATE	-0.1396589
-4.2037864	BOSS	-0.1396589
-4.2037864	BASS	-0.1396589
-4.2037864	EATERS	-0.1396589
-4.2037864	HUNT	-0.1396589
-4.2037864	EATER	-0.1396589
-4.2037864	INVESTIGATING	-0.1396589
-3.570707	COOL	-0.32285327
-4.2037864	STORY	-0.1396589
-4.2037864	COMPOSER	-0.1396589
-4.2037864	FEEDS	-0.1396589
-4.090559	ARTERY	-0.1396589
-4.090559	DUH	-0.2284496
-4.2037864	BEES	-0.1396589
-4.090559	RAN	-0.1396589
-4.2037864	SLAPPED	-0.1396589
-4.2037864	MOSQUITO	-0.1396589
-4.090559	SPILL	-0.1396589
-4.2037864	NERVES	-0.1396589
-4.2037864	SPINAL	-0.1396589
-4.090559	MESSAGES	-0.1396589
-3.9845102	HIT	-0.27031457
-4.2037864	BASEBALL	-0.1396589
-4.2037864	EXPLORING	-0.1396589
-3.8389251	WICK	-0.2284496
-4.2037864	FLICKERS	-0.1396589
-4.2037864	SPARKS	-0.1396589
-3.8389251	BURNING	-0.16728678
-3.6431246	SHE'S	-0.20009173
-3.7300825	POLLUTE	-0.22226125
-4.2037864	SMOG	-0.1396589
-4.2037864	DISTRIBUTE	-0.1396589
-4.2037864	BILLIONS	-0.1396589
-4.090559	YEARS	-0.1396589
-3.141043	THIRTY	-0.30205742
-4.090559	BOUNCING	-0.2284496
-3.8389251	MIRROR	-0.16728678
-4.090559	GLASS	-0.1396589
-3.9845102	HIMSELF	-0.19679238
-4.2037864	APPEARS	-0.1396589
-4.2037864	SLICED	-0.1396589
-4.2037864	SPECTRUM	-0.1396589
-4.2037864	AURA	-0.1396589
-4.2037864	FULLY	-0.1396589
-4.090559	PRISM	-0.1396589
-4.090559	RAINBOW	-0.19679238
-4.2037864	DIVIDES	-0.1396589
-4.2037864	WAVES	-0.1396589
-3.3627102	GONNA	-0.18011297
-4.090559	REFLECTS	-0.16728678
-3.6431246	EYE	-0.20945473
-3.9845102	REFLECTION	-0.1396589
-3.8389251	HITS	-0.36722457
-4.2037864	STAR	-0.1396589
-3.9845102	REFLECTING	-0.19679238
-4.090559	BOUT	-0.1396589
-4.2037864	SPECIFICALLY	-0.1396589
-3.570707	TIMES	-0.18731368
-3.7300825	INCREASE	-0.32003078
-3.6431246	WINDS	-0.15219223
-4.090559	WORDS	-0.1396589
-3.2870622	GRAPH	-0.1917778
-3.6431246	UNIT	-0.23870397
-3.8389251	WRAPS	-0.1396589
-3.7300825	GRAPHS	-0.19679238
-3.6431246	DATA	-0.1602133
-4.2037864	PREDICTIONS	-0.1396589
-4.090559	MAN	-0.1396589
-4.090559	BOUNCES	-0.1396589
-4.2037864	BOUNCE	-0.1396589
-4.2037864	PERSON'S	-0.1396589
-4.090559	CORNER	-0.1396589
-4.090559	PENCIL	-0.15602387
-4.090559	LOWERED	-0.1396589
-4.090559	ANYWHERE	-0.1396589
-4.2037864	SPLITTING	-0.1396589
-4.2037864	ABSORBING	-0.1396589
-3.9845102	ABSORBED	-0.19679238
-4.2037864	LIME	-0.1396589
-4.090559	OK	-0.1396589
-4.090559	ATTACH	-0.2284496
-4.2037864	LIFTING	-0.1396589
-4.2037864	SENDING	-0.1396589
-4.090559	MATCH	-0.1396589
-4.090559	PASSES	-0.1396589
-4.2037864	TRAIN	-0.1396589
-4.2037864	LADY	-0.1396589
-4.2037864	PASS	-0.1396589
-3.5086567	SEEING	-0.20561711
-3.9845102	ELECTRICITY'S	-0.20917976
-3.7300825	OBVIOUSLY	-0.1396589
-4.2037864	ORGANIZED	-0.1396589
-2.7558522	TWENTY	-0.32374403
-4.2037864	ENTERING	-0.1396589
-4.2037864	APPEAR	-0.1396589
-4.090559	MACHINE	-0.1396589
-4.2037864	THING'S	-0.1396589
-3.7300825	AREN'T	-0.17302972
-4.2037864	GOOEY	-0.1396589
-3.9845102	OBSERVE	-0.1396589
-4.2037864	DRUMS	-0.1396589
-4.090559	PLAYING	-0.1396589
-4.2037864	CRACKLE	-0.1396589
-4.2037864	MOUNT	-0.1396589
-4.2037864	EVEREST	-0.1396589
-4.090559	SMOKE	-0.1396589
-4.090559	RESOURCES	-0.1396589
-4.090559	YA	-0.1396589
-4.2037864	ENERGY'S	-0.1396589
-3.570707	DIM	-0.28920805
-4.090559	KEPT	-0.19679238
-4.2037864	DOUBLED	-0.1396589
-3.2226567	MATH	-0.17084086
-3.9845102	ALUMINUM	-0.18178906
-3.570707	EM	-0.15602387
-4.2037864	DISTANCES	-0.1396589
-4.2037864	TWIST	-0.1396589
-4.2037864	WASH	-0.1396589
-3.8389251	LAND	-0.20917976
-4.2037864	SPHERES	-0.1396589
-3.9845102	THINKS	-0.19679238
-4.2037864	DOMINANT	-0.1396589
-4.2037864	DESTROY	-0.1396589
-4.2037864	RID	-0.1396589
-3.9845102	ORDER	-0.1396589
-4.2037864	FRUITS	-0.1396589
-4.090559	OTHERWISE	-0.1396589
-4.2037864	BROWN	-0.1396589
-4.2037864	SINGLE	-0.1396589
-4.090559	RECESS	-0.1396589
-4.090559	DOOR	-0.1396589
-4.2037864	KID	-0.1396589
-3.9845102	STARTLED	-0.19679238
-4.2037864	DANCE	-0.1396589
-4.2037864	FLOWERS	-0.1396589
-3.9845102	POLLEN	-0.1396589
-4.090559	COMPANY	-0.1396589
-4.2037864	DOOR'S	-0.1396589
-4.2037864	RINGING	-0.1396589
-4.2037864	BOY'S	-0.1396589
-4.2037864	BARKS	-0.1396589
-4.2037864	MOSQUITOS	-0.1396589
-4.090559	SLAPS	-0.1396589
-4.2037864	MUSHED	-0.1396589
-4.2037864	SPILLS	-0.1396589
-4.2037864	GUY'S	-0.1396589
-4.2037864	CHORD	-0.1396589
-4.2037864	BRINGING	-0.1396589
-4.2037864	SINGLES	-0.1396589
-4.2037864	STINK	-0.1396589
-4.2037864	DEFENSE	-0.1396589
-4.2037864	STRIPES	-0.1396589
-3.8389251	TOXIC	-0.1396589
-4.2037864	FIN	-0.1396589
-4.2037864	YOUNG	-0.1396589
-4.2037864	SHAKING	-0.1396589
-4.2037864	FIGHT	-0.1396589
-4.2037864	WALKS	-0.1396589
-4.2037864	MIGRATION	-0.1396589
-4.2037864	GRABBING	-0.1396589
-4.090559	NON	-0.1396589
-4.2037864	INSTINCT	-0.1396589
-4.2037864	CAT'S	-0.1396589
-4.2037864	FRAME	-0.1396589
-3.9845102	REPRESENT	-0.1396589
-4.2037864	GENERATING	-0.1396589
-4.2037864	CLOSING	-0.1396589
-4.2037864	INSULATION	-0.1396589
-4.2037864	VIBRATING	-0.1396589
-4.090559	SOUNDS	-0.1396589
-4.2037864	CONSERVES	-0.1396589
-4.2037864	SMOKEY	-0.1396589
-4.2037864	REUSE	-0.1396589
-3.6431246	MISS	-0.18815571
-4.090559	STRENGTH	-0.1396589
-4.2037864	ELECTROMAGNET'S	-0.1396589
-4.2037864	DISPLAY	-0.1396589
-4.090559	RECORDING	-0.1396589
-3.9845102	LINES	-0.16728678
-4.2037864	GRADUALLY	-0.1396589
-4.2037864	NEVERMIND	-0.1396589
-4.2037864	COLLECTED	-0.1396589
-4.2037864	BIOSPHERE'S	-0.1396589
-3.5086567	PLACES	-0.39989132
-3.8389251	SMALLEST	-0.16728678
-4.090559	LARGEST	-0.1396589
-4.2037864	INTERACT	-0.1396589
-4.2037864	LAYING	-0.1396589
-4.2037864	GENERAL	-0.1396589
-4.090559	HERBS	-0.1396589
-4.2037864	SECONDARY	-0.1396589
-4.2037864	WORM	-0.1396589
-4.2037864	WIGGLE	-0.1396589
-4.2037864	LANDFILLS	-0.1396589
-4.090559	ACTIVATED	-0.19679238
-4.090559	FILLS	-0.1396589
-4.2037864	SUFFOCATE	-0.1396589
-4.2037864	YEASTS	-0.1396589
-3.9845102	EH	-0.1396589
-3.6431246	SAYING	-0.18815571
-4.2037864	VITAMIN	-0.1396589
-3.9845102	FREEZE	-0.1396589
-4.2037864	DEATH	-0.1396589
-4.2037864	STARVE	-0.1396589
-4.2037864	PANT	-0.1396589
-4.090559	HOWEVER	-0.1396589
-4.2037864	TON	-0.1396589
-4.2037864	HIGHLIGHTED	-0.1396589
-4.090559	LOSS	-0.1396589
-4.090559	FUR	-0.1396589
-3.7300825	SIMILAR	-0.17302972
-3.570707	DEGREE	-0.1632307
-4.2037864	SOMEWHAT	-0.1396589
-4.2037864	FAIRLY	-0.1396589
-4.2037864	SWALLOWS	-0.1396589
-4.2037864	COMMUNICATE	-0.1396589
-4.2037864	FEELINGS	-0.1396589
-4.2037864	BENEFITS	-0.1396589
-4.2037864	BENEFIT	-0.1396589
-4.2037864	WARNING	-0.1396589
-3.3627102	EVERYBODY	-0.18275878
-4.2037864	SHAKES	-0.1396589
-4.2037864	WAKES	-0.1396589
-4.2037864	CONTROLS	-0.1396589
-4.2037864	INSTINCTS	-0.1396589
-3.8389251	SURPRISED	-0.1396589
-4.2037864	WANTING	-0.1396589
-4.2037864	SCREAM	-0.1396589
-4.2037864	CATCHING	-0.1396589
-4.090559	FRISBEE	-0.1396589
-4.2037864	THROWN	-0.1396589
-4.2037864	DOG'S	-0.1396589
-4.2037864	CHASE	-0.1396589
-4.2037864	LINKED	-0.1396589
-4.090559	FANTASTIC	-0.19679238
-3.4543738	PLASTIC	-0.21837269
-4.2037864	JOB	-0.1396589
-4.2037864	QUICK	-0.1396589
-3.9845102	CHANGES	-0.1396589
-4.090559	AWESOME	-0.2284496
-4.2037864	SPINS	-0.1396589
-3.4061282	STRAWS	-0.1396589
-4.090559	SCORPIONS	-0.2284496
-4.2037864	DRAFT	-0.1396589
-3.9845102	FAN	-0.1396589
-4.2037864	TANK	-0.1396589
-4.2037864	FOGGY	-0.1396589
-4.2037864	GASSY	-0.1396589
-4.090559	HOOKED	-0.1396589
-4.2037864	WORLD	-0.1396589
-4.2037864	VEHICLES	-0.1396589
-4.2037864	SOURCES	-0.1396589
-4.2037864	THROW	-0.1396589
-4.090559	RELATIONSHIP	-0.1396589
-3.8389251	NEW	-0.1396589
-4.2037864	EYESIGHT	-0.1396589
-3.6431246	INTERACTING	-0.32285327
-4.2037864	CRACKERS	-0.1396589
-4.090559	EXCUSE	-0.2284496
-3.4543738	SPACE	-0.17690097
-4.2037864	BOTHERING	-0.1396589
-3.8389251	ASKED	-0.24084952
-4.2037864	ARROW	-0.1396589
-4.090559	ACCIDENTALLY	-0.1396589
-4.2037864	ANSWERED	-0.1396589
-4.2037864	BANANA	-0.1396589
-4.2037864	PEEL	-0.1396589
-4.2037864	INVOLVED	-0.1396589
-4.2037864	MATEA'S	-0.1396589
-4.2037864	MATEA	-0.1396589
-3.7300825	FUN	-0.28920805
-4.2037864	COMPUTERS	-0.1396589
-4.090559	CLASSROOM	-0.1396589
-4.090559	MELTS	-0.1396589
-4.090559	SOON	-0.1396589
-4.2037864	SPARK	-0.1396589
-4.2037864	LIGHT'S	-0.1396589
-4.2037864	COUGH	-0.1396589
-4.2037864	SNEEZE	-0.1396589
-4.2037864	RUNNY	-0.1396589
-3.8389251	R	-0.1396589
-4.2037864	TIGHTLY	-0.1396589
-4.090559	CORE	-0.19679238
-4.090559	PRESS	-0.19679238
-3.570707	SEVEN	-0.1396589
-4.090559	ATTACHED	-0.1396589
-3.5086567	TEST	-0.1698878
-3.323241	HUNDRED	-0.2402079
-3.2226567	LINE	-0.2218455
-4.2037864	ACTIVATE	-0.1396589
-4.2037864	ACTIVATING	-0.1396589
-3.8389251	DEFINITELY	-0.17302972
-4.090559	TOTALLY	-0.1396589
-4.2037864	DROOPY	-0.1396589
-4.2037864	BEAUTIFULLY	-0.1396589
-4.2037864	MOMMY	-0.1396589
-3.8389251	THEY'LL	-0.18178906
-4.090559	BURNS	-0.2284496
-4.2037864	OUTS	-0.1396589
-3.7300825	SAW	-0.19679238
-4.2037864	GLOWED	-0.1396589
-4.090559	NIGHT	-0.1396589
-4.2037864	EAST	-0.1396589
-4.2037864	SHADOW	-0.1396589
-3.9845102	SHADOWS	-0.1396589
-3.5086567	SHORTER	-0.18731368
-4.2037864	DIRECTLY	-0.1396589
-4.2037864	OVERHEAD	-0.1396589
-3.1937141	METERS	-0.33561397
-3.7300825	AXIS	-0.29526234
-4.2037864	DEMONSTRATES	-0.1396589
-3.1665804	MEASUREMENT	-0.3374225
-3.7300825	PLANETS	-0.1396589
-4.2037864	COMETS	-0.1396589
-4.2037864	ORBITING	-0.1396589
-4.090559	ASTEROID	-0.1396589
-4.2037864	KNOWN	-0.1396589
-4.2037864	BELT	-0.1396589
-4.2037864	HELIUM	-0.1396589
-4.2037864	HYDROGEN	-0.1396589
-4.090559	TERRESTRIAL	-0.2284496
-3.9845102	MERCURY	-0.1396589
-4.2037864	MARS	-0.1396589
-4.2037864	GIANTS	-0.1396589
-4.2037864	ORBITS	-0.1396589
-4.2037864	GRAVITATIONAL	-0.1396589
-4.090559	DOME	-0.1396589
-3.3627102	SURFACE	-0.30316266
-4.2037864	POPS	-0.1396589
-4.2037864	MODER	-0.1396589
-4.090559	SOAPY	-0.1396589
-4.2037864	SALTY	-0.1396589
-3.9845102	POP	-0.1396589
-4.2037864	STEADY	-0.1396589
-4.2037864	SERVICE	-0.1396589
-4.2037864	TENSERS	-0.1396589
-3.3627102	SIX	-0.26085156
-3.7300825	WOULD'VE	-0.36722457
-4.2037864	FLOATED	-0.1396589
-3.072367	DEGREES	-0.43683296
-3.6431246	FAHRENHEIT	-0.16728678
-3.4543738	FORTY	-0.18948278
-3.4061282	MILLIMETERS	-0.27174008
-4.2037864	EXPANDED	-0.1396589
-4.2037864	JUNGLE	-0.1396589
-3.9845102	DESERT	-0.1396589
-3.570707	HOTTER	-0.23529468
-3.4061282	COLDER	-0.2566666
-4.2037864	COAT	-0.1396589
-4.2037864	RACK	-0.1396589
-4.2037864	LOCKER	-0.1396589
-4.090559	COOLER	-0.1396589
-4.2037864	HOTTEST	-0.1396589
-4.2037864	LOSES	-0.1396589
-4.2037864	LE	-0.1396589
-3.9845102	LI	-0.1396589
-4.090559	MILLS	-0.2284496
-4.2037864	CLEARING	-0.1396589
-4.2037864	WINDMILL	-0.1396589
-4.2037864	LAKE	-0.1396589
-3.7300825	SYRINGE	-0.19513996
-4.090559	MILL	-0.1396589
-4.2037864	SQUIRTED	-0.1396589
-4.090559	LIFT	-0.2284496
-4.2037864	COOLS	-0.1396589
-4.2037864	RAINS	-0.1396589
-2.9609277	S	-0.23143174
-2.8463962	MMM	-0.412209
-4.2037864	PE	-0.1396589
-3.9845102	CONTAINERS	-0.19679238
-4.2037864	RIVER	-0.1396589
-4.2037864	THREW	-0.1396589
-4.2037864	NEAR	-0.1396589
-4.2037864	SHADE	-0.1396589
-4.2037864	FREEZER	-0.1396589
-4.2037864	RECYCLE	-0.1396589
-4.090559	BEADS	-0.2284496
-3.570707	TH	-0.15788089
-4.090559	SLIDE	-0.1396589
-4.2037864	TOWEL	-0.1396589
-3.9845102	SOAK	-0.1396589
-3.7300825	SOAKED	-0.1396589
-4.090559	FOIL	-0.1396589
-3.9845102	DROPPED	-0.1396589
-4.2037864	EXPLODED	-0.1396589
-4.2037864	SLID	-0.1396589
-4.2037864	PUDDLE	-0.1396589
-4.090559	EXPANDING	-0.1396589
-3.4543738	W	-0.1396589
-4.090559	THEY'D	-0.1396589
-3.6431246	TALL	-0.17899916
-4.090559	SLOPES	-0.2284496
-4.090559	SLOPE	-0.17302972
-4.2037864	STRETCHING	-0.1396589
-4.2037864	BENDING	-0.1396589
-4.090559	MEDIUM	-0.1396589
-3.3627102	ER	-0.17899916
-4.090559	THI	-0.1396589
-4.2037864	DEN	-0.1396589
-4.2037864	DENSERS	-0.1396589
-3.5086567	WA	-0.18275878
-4.090559	AGREE	-0.1396589
-4.2037864	WAI	-0.1396589
-4.090559	WING	-0.1396589
-4.2037864	JACQUELINE	-0.1396589
-4.2037864	WELCOME	-0.1396589
-3.6431246	'EM	-0.1396589
-3.2536664	TEMPERATURE	-0.3039379
-3.4543738	ZERO	-0.15451042
-4.2037864	RAINED	-0.1396589
-4.090559	FRONT	-0.1396589
-4.2037864	LOSING	-0.1396589
-4.2037864	HILL	-0.1396589
-4.2037864	CIRCLES	-0.1396589
-3.9845102	PENDULUM	-0.22226125
-3.7300825	STRING	-0.15602387
-3.5086567	SWINGS	-0.29700172
-3.7300825	VARIABLE	-0.19390474
-4.090559	CONTROLLED	-0.2284496
-4.2037864	PERHAPS	-0.1396589
-4.2037864	THEREFORE	-0.1396589
-3.8389251	CYCLES	-0.24084952
-3.9845102	INFORMATION	-0.18178906
-4.2037864	LENGTHS	-0.1396589
-4.090559	LIFEBOATS	-0.1396589
-3.0130827	CENTIMETERS	-0.3137265
-3.4543738	BOATS	-0.23574936
-3.570707	PENNIES	-0.17839915
-3.9845102	BOAT	-0.21360458
-3.570707	LENGTH	-0.27174008
-3.6431246	HAPPEN	-0.3185992
-3.7300825	PASSENGERS	-0.18948278
-4.2037864	TIP	-0.1396589
-3.6431246	HELD	-0.1396589
-3.4543738	HA	-0.1396589
-3.9845102	COMPARE	-0.1396589
-4.2037864	AFFECTED	-0.1396589
-3.7300825	VARIABLES	-0.20009173
-4.2037864	DECIDED	-0.1396589
-4.2037864	ROCKY	-0.1396589
-3.4543738	T	-0.15602387
-3.9845102	SIZED	-0.1396589
-4.090559	PENDULUMS	-0.2284496
-3.1665804	CAPACITY	-0.24493656
-3.7300825	Y	-0.15602387
-4.2037864	FIGURED	-0.1396589
-3.7300825	FIT	-0.20449299
-3.9845102	P	-0.1396589
-4.2037864	PRACTICING	-0.1396589
-4.2037864	COATED	-0.1396589
-4.2037864	COUNTED	-0.1396589
-3.6431246	FIGURE	-0.44640583
-4.2037864	RISE	-0.1396589
-4.090559	INDEPENDENT	-0.1396589
-4.2037864	DEPENDENT	-0.1396589
-4.2037864	PLOT	-0.1396589
-4.2037864	PREDICTED	-0.1396589
-3.8389251	SIXTY	-0.1396589
-4.2037864	BOXES	-0.1396589
-4.2037864	PETS	-0.1396589
-4.090559	AFFECTS	-0.1396589
-3.5086567	N	-0.28009665
-4.2037864	FINISHED	-0.1396589
-3.9845102	TENS	-0.18178906
-4.090559	TWENTIES	-0.1396589
-4.090559	CONFUSING	-0.1396589
-4.2037864	PAS	-0.1396589
-4.2037864	CAS	-0.1396589
-4.090559	CAREFULLY	-0.1396589
-3.4061282	M	-0.1396589
-4.2037864	CONSTITUTION	-0.1396589
-4.090559	RELEASE	-0.1396589
-4.2037864	BUMPED	-0.1396589
-3.8389251	TEACHER	-0.1396589
-3.9845102	MESS	-0.1396589
-4.2037864	PROJECT	-0.1396589
-3.9845102	WE'LL	-0.1396589
-3.8389251	BOOK	-0.19679238
-3.9845102	SWING	-0.1396589
-4.090559	SWUNG	-0.1396589
-4.2037864	REPEATEDLY	-0.1396589
-4.090559	SWINGING	-0.1396589
-3.6431246	LOWER	-0.18815571
-4.2037864	FARTHEST	-0.1396589
-4.2037864	BOB	-0.1396589
-3.8389251	THIRTEEN	-0.18178906
-4.2037864	LIKELY	-0.1396589
-4.2037864	EIGHTEEN	-0.1396589
-4.2037864	EX	-0.1396589
-3.6431246	HEIGHT	-0.16728678
-4.090559	Z	-0.1396589
-4.2037864	SIDE'S	-0.1396589
-3.2870622	WARMER	-0.36531055
-2.9609277	MEASURING	-0.2569662
-3.570707	MILLILITER	-0.15602387
-3.8389251	MILLIMETER	-0.1396589
-4.2037864	HEARD	-0.1396589
-4.2037864	TRUCK	-0.1396589
-4.2037864	BUMPS	-0.1396589
-3.9845102	YUP	-0.1632307
-3.7300825	SEVENTY	-0.17302972
-4.2037864	AI	-0.1396589
-4.2037864	THIRDS	-0.1396589
-4.2037864	COLDNESS	-0.1396589
-4.090559	ACT	-0.1396589
-3.7300825	FINGER	-0.18275878
-4.090559	BOILING	-0.1396589
-4.2037864	DAD	-0.1396589
-4.2037864	COOKS	-0.1396589
-3.323241	I'D	-0.43770376
-3.4061282	CELSIUS	-0.25163066
-3.8389251	EIGHTY	-0.1396589
-3.9845102	NINETY	-0.17302972
-4.090559	LIKED	-0.1396589
-4.2037864	LOVE	-0.1396589
-4.2037864	MILIMETERS	-0.1396589
-3.2536664	METER	-0.30392477
-3.4543738	INCHES	-0.28009665
-3.7300825	TAPE	-0.21376128
-4.2037864	ABSOLUTELY	-0.1396589
-4.2037864	RA	-0.1396589
-3.5086567	ESTIMATING	-0.19294645
-3.9845102	BALANCED	-0.19679238
-3.323241	STANDARD	-0.21490762
-4.2037864	AGREED	-0.1396589
-4.2037864	BUCK	-0.1396589
-4.090559	CHOSE	-0.1396589
-3.7300825	ESTIMATE	-0.17690097
-3.7300825	GUESSING	-0.17302972
-4.2037864	ERASER	-0.1396589
-3.8389251	FINDING	-0.36722457
-3.9845102	UNITS	-0.19679238
-3.8389251	FORGET	-0.17690097
-4.2037864	YOGURT	-0.1396589
-3.9845102	METRIC	-0.18178906
-3.7300825	LITER	-0.20311941
-4.2037864	GOSH	-0.1396589
-4.2037864	CONFUSED	-0.1396589
-3.9845102	MILLA	-0.1396589
-4.2037864	TWENTIETH	-0.1396589
-3.9845102	THOUSAND	-0.17302972
-3.6431246	TWELVE	-0.1396589
-4.2037864	FURNITURE	-0.1396589
-4.2037864	CARPETING	-0.1396589
-4.2037864	SCHOOLYARD	-0.1396589
-4.2037864	RE	-0.1396589
-3.9845102	MINE	-0.1396589
-4.090559	YOURS	-0.1396589
-3.2870622	WEIGHED	-0.21307492
-4.2037864	SQUEEZE	-0.1396589
-3.8389251	THERE'D	-0.18178906
-4.2037864	WRING	-0.1396589
-4.2037864	DRIPS	-0.1396589
-4.090559	SCALE	-0.17302972
-3.9845102	AGO	-0.1396589
-3.3627102	MEASURED	-0.18225256
-3.7300825	YESTERDAY	-0.1396589
-4.090559	SCISSORS	-0.1396589
-4.090559	PENCILS	-0.1396589
-4.2037864	CRAYONS	-0.1396589
-4.2037864	WED	-0.1396589
-4.090559	ESTIMATED	-0.1396589
-4.090559	THOUGHT	-0.15451042
-4.2037864	MAKER	-0.1396589
-4.2037864	DIAPERS	-0.1396589
-4.2037864	BABY	-0.1396589
-4.2037864	BEGINNING	-0.1396589
-4.2037864	WEI	-0.1396589
-4.090559	FEELS	-0.1396589
-3.8389251	THERMOMETER	-0.16728678
-4.2037864	PRESSURE	-0.1396589
-3.4543738	UH-HUH	-0.38697755
-4.2037864	COOLED	-0.1396589
-3.7300825	WE'D	-0.18815571
-4.090559	DOT	-0.1396589
-4.2037864	SUMMER	-0.1396589
-4.090559	NE	-0.2284496
-4.2037864	HOWDY	-0.1396589
-4.090559	STUDIED	-0.19679238
-3.7300825	KILOMETERS	-0.18731368
-3.9845102	DECIMETERS	-0.19679238
-3.9845102	TAPES	-0.1396589
-4.2037864	POLKA	-0.1396589
-4.090559	GROUP'S	-0.2284496
-3.6431246	MEASUREMENTS	-0.20945473
-4.2037864	PRACTICED	-0.1396589
-3.8389251	POUNDS	-0.18178906
-3.9845102	DISC	-0.18815571
-4.2037864	SHA	-0.1396589
-4.2037864	DESKS	-0.1396589
-4.2037864	HEIGHTS	-0.1396589
-4.2037864	EAR	-0.1396589
-4.2037864	METER'S	-0.1396589
-4.2037864	SE	-0.1396589
-3.9845102	TRIED	-0.17302972
-4.2037864	DIVIDED	-0.1396589
-4.090559	DA	-0.1396589
-4.2037864	EXTRA	-0.1396589
-4.2037864	DRIP	-0.1396589
-4.090559	ACROSS	-0.1396589
-3.9845102	KILOGRAMS	-0.1396589
-3.570707	MINUTES	-0.1632307
-4.2037864	PROB	-0.1396589
-4.090559	BELOW	-0.1396589
-3.323241	YET	-0.30625013
-4.2037864	REASONABLE	-0.1396589
-3.8389251	CENTIMETER	-0.2674467
-4.2037864	INCH	-0.1396589
-4.2037864	FILING	-0.1396589
-4.090559	CALIFORNIA	-0.1396589
-4.2037864	YORK	-0.1396589
-4.090559	SCALES	-0.1396589
-4.2037864	MATCHED	-0.1396589
-4.090559	ELEVEN	-0.1396589
-4.2037864	DUMP	-0.1396589
-4.2037864	NAH	-0.1396589
-3.8389251	EQUALED	-0.1396589
-4.2037864	K	-0.1396589
-4.2037864	ANCIENT	-0.1396589
-4.2037864	ROME	-0.1396589
-4.090559	SA	-0.1396589
-3.7300825	COUNT	-0.17302972
-4.090559	PAINT	-0.1396589
-3.7300825	MA	-0.1396589
-3.9845102	HALFWAY	-0.1396589
-4.2037864	LEAK	-0.1396589
-4.2037864	MOM	-0.1396589
-4.2037864	INGREDIENTS	-0.1396589
-4.2037864	QUARTER	-0.1396589
-4.090559	MILK	-0.1396589
-4.090559	CARTON	-0.1396589
-4.2037864	DI	-0.1396589
-4.2037864	CA	-0.1396589
-3.8389251	WANNA	-0.1632307
-4.090559	SCHOOL	-0.1396589
-3.9845102	AVERAGE	-0.17302972
-4.090559	PINKIE	-0.1396589
-4.2037864	DECIMETER	-0.1396589
-4.2037864	ADULT	-0.1396589
-4.090559	HUN	-0.1396589
-4.2037864	V	-0.1396589
-4.090559	GUESSED	-0.1396589
-4.2037864	DOORS	-0.1396589
-4.2037864	WAIST	-0.1396589
-4.090559	HEAD	-0.2284496
-4.2037864	TAPED	-0.1396589
-3.9845102	U	-0.1396589
-4.090559	ANDREW	-0.1396589
-4.090559	LINED	-0.1396589
-4.090559	TALLEST	-0.1396589
-4.2037864	ELSE'S	-0.1396589
-4.2037864	LA	-0.1396589
-4.090559	LAID	-0.1396589
-4.2037864	FLOOR	-0.1396589
-4.2037864	WALL	-0.1396589
-4.2037864	BALASCA	-0.1396589
-4.2037864	COULD'VE	-0.1396589
-4.2037864	CAMERA	-0.1396589
-4.2037864	CENT	-0.1396589
-3.9845102	ARM	-0.324354
-4.090559	SPAN	-0.18178906
-3.9845102	QUICKER	-0.1396589
-4.090559	NOPE	-0.1396589
-3.7300825	L	-0.1396589
-4.2037864	FEETS	-0.1396589
-3.8389251	FOOT	-0.1396589
-4.2037864	AREAS	-0.1396589
-4.090559	SPACES	-0.1396589
-4.2037864	LEANING	-0.1396589
-4.2037864	SOMETHING'S	-0.1396589
-4.2037864	CLASSMATES	-0.1396589
-4.090559	FOURTEEN	-0.1396589
-4.090559	MIGHT'VE	-0.1396589
-3.8389251	VIAL	-0.20945473
-4.2037864	HEIGHTH	-0.1396589
-3.9845102	PLUNGERS	-0.1396589
-3.8389251	PLUNGER	-0.1396589
-4.090559	FILLING	-0.1396589
-4.2037864	ABS	-0.1396589
-4.090559	HU	-0.1396589
-4.2037864	SH	-0.1396589
-4.2037864	BUCKET	-0.1396589
-4.090559	ALCOHOL	-0.1396589
-4.090559	NINETEEN	-0.1396589
-4.2037864	SPENT	-0.1396589
-4.2037864	DRAW	-0.1396589
-4.2037864	DUMPED	-0.1396589
-4.090559	SITTING	-0.2284496
-4.2037864	SITS	-0.1396589
-4.2037864	OVERNIGHT	-0.1396589
-3.8389251	TEMPERATURES	-0.17302972
-4.2037864	SIGNS	-0.1396589
-4.2037864	RECTANGLE	-0.1396589
-4.2037864	CURVED	-0.1396589
-4.090559	HOMEWORK	-0.1396589
-4.2037864	ROLLUP	-0.1396589
-3.9845102	WIDTH	-0.18178906
-4.2037864	FOLD	-0.1396589
-4.090559	FLIPPED	-0.2284496
-4.2037864	WALKED	-0.1396589
-4.2037864	GLUE	-0.1396589
-4.2037864	COLORING	-0.1396589
-4.090559	ROWS	-0.1396589
-4.2037864	RESEARCH	-0.1396589
-4.090559	LUNCH	-0.1396589
-4.2037864	BASKET	-0.1396589
-4.2037864	RECYCLING	-0.1396589
-4.2037864	BIN	-0.1396589
-4.090559	PARTNER	-0.1396589
-3.9845102	PARTNERS	-0.1396589
-4.2037864	WORKSHEET	-0.1396589
-4.090559	SHEET	-0.1396589
-4.090559	TALLER	-0.2284496
-4.090559	OUNCES	-0.2284496
-4.2037864	SPONGES	-0.1396589
-4.2037864	AMERICAN'S	-0.1396589
-4.090559	KILOMETER	-0.1396589
-4.2037864	OLYMPICS	-0.1396589
-4.2037864	RACE	-0.1396589
-4.090559	KILO	-0.19679238
-4.090559	YARDS	-0.1396589
-4.2037864	YARD	-0.1396589
-3.7300825	LITERS	-0.17302972
-4.090559	IMMEDIATELY	-0.1396589
-4.2037864	AMAZING	-0.1396589
-4.2037864	SOAKS	-0.1396589
-4.090559	TA	-0.1396589
-4.2037864	MEASURER	-0.1396589
-4.2037864	BOILS	-0.1396589
-4.090559	KILOLITER	-0.1396589
-3.8389251	NEVER	-0.1396589
-3.8389251	GRADUATED	-0.44929275
-4.2037864	CYLINDER	-0.1396589
-3.8389251	I'LL	-0.1396589
-4.2037864	MOTHER	-0.1396589
-4.2037864	DAUGHTER	-0.1396589
-4.090559	BROUGHT	-0.1396589
-4.2037864	ERASERS	-0.1396589
-4.2037864	TEACHER'S	-0.1396589
-3.8389251	ACCURATE	-0.1396589
-4.2037864	RANGE	-0.1396589
-4.2037864	MORNING	-0.1396589
-4.2037864	SPA	-0.1396589
-4.090559	SUCK	-0.1396589
-4.090559	COMPUTER	-0.1396589
-4.2037864	DOCTOR'S	-0.1396589
-3.6431246	VIALS	-0.19294645
-3.9845102	WROTE	-0.18178906
-4.2037864	BOYS	-0.1396589
-4.090559	TROUBLE	-0.1396589
-4.2037864	MARKERS	-0.1396589
-4.2037864	EVERYBODY'S	-0.1396589
-4.2037864	BALASCO	-0.1396589
-4.2037864	JUG	-0.1396589
-4.2037864	DON	-0.1396589
-4.2037864	JANITOR	-0.1396589
-4.2037864	BI	-0.1396589
-4.090559	CEMENT	-0.19679238
-4.2037864	SANK	-0.1396589
-4.2037864	DENOMINATORS	-0.1396589
-4.2037864	GUYS	-0.1396589
-4.2037864	SLIPPED	-0.1396589
-4.090559	BEAKER	-0.18178906
-4.2037864	WHO'S	-0.1396589
-4.090559	STUDENT	-0.1396589
-4.090559	ROBOT	-0.2284496
-4.090559	COLDEST	-0.19679238
-4.2037864	SPONGEBOB	-0.1396589
-4.2037864	FRACTIONS	-0.1396589
-4.2037864	DIFFICULT	-0.1396589
-3.9845102	RULER	-0.17302972
-4.090559	AGAINST	-0.2284496
-4.2037864	FRIEND	-0.1396589
-4.2037864	ALEXIS	-0.1396589
-4.2037864	MACKENZIE	-0.1396589
-4.2037864	STOOD	-0.1396589
-4.2037864	SHOES	-0.1396589
-4.2037864	COOPER	-0.1396589
-4.2037864	MEREDITH	-0.1396589
-4.2037864	SHORTEST	-0.1396589
-4.2037864	APPRECIATE	-0.1396589
-4.2037864	FIXTURE	-0.1396589
-4.2037864	TABLES	-0.1396589
-4.090559	GAVE	-0.2284496
-4.2037864	CENTIME	-0.1396589
-4.090559	STANDARDS	-0.1396589
-4.090559	CLEARLY	-0.2284496
-3.5086567	CHIP	-0.2450753
-4.090559	POKER	-0.2284496
-4.2037864	UNEVEN	-0.1396589
-4.2037864	KNOB	-0.1396589
-4.2037864	BLOCKS	-0.1396589
-4.090559	MULTIPLICATION	-0.1396589
-4.090559	DIVISION	-0.2284496
-4.2037864	CURRENTLY	-0.1396589
-4.2037864	FOOTBALL	-0.1396589
-4.2037864	COUCH	-0.1396589
-4.2037864	STRAIGHTER	-0.1396589
-4.090559	BENDED	-0.1396589
-4.2037864	REACHES	-0.1396589
-4.2037864	ROBI	-0.1396589
-4.2037864	BEGIN	-0.1396589
-4.090559	ARMS	-0.1396589
-4.2037864	FINGERTIP	-0.1396589
-3.8389251	FINGERS	-0.1396589
-4.2037864	PT	-0.1396589
-4.2037864	GAP	-0.1396589
-4.2037864	PINKIES	-0.1396589
-4.090559	PINKY	-0.19679238
-4.2037864	MARTY	-0.1396589
-4.2037864	DISCONNECT	-0.1396589
-4.090559	THURSDAY	-0.1396589
-4.2037864	FRIDAY	-0.1396589
-4.2037864	WEDNESDAY	-0.1396589
-4.2037864	PLAYED	-0.1396589
-4.090559	MARKS	-0.1396589
-4.2037864	WISH	-0.1396589
-4.2037864	MARKED	-0.1396589
-4.090559	SQUIGGLY	-0.1396589
-4.2037864	SPILLING	-0.1396589
-4.2037864	ESTIMATES	-0.1396589
-4.2037864	VOCABULARY	-0.1396589
-4.2037864	VARIETIES	-0.1396589
-4.2037864	NECESSARILY	-0.1396589
-4.2037864	DROPLET	-0.1396589
-4.2037864	SLIDING	-0.1396589
-3.9845102	SLANTED	-0.19679238
-3.8389251	MOVED	-0.1396589
-4.2037864	BARELY	-0.1396589
-4.2037864	RIVERS	-0.1396589
-4.2037864	WATERFALLS	-0.1396589
-4.2037864	UPHILL	-0.1396589
-4.2037864	POWERFUL	-0.1396589
-4.2037864	JET	-0.1396589
-4.2037864	EXPERIMENTS	-0.1396589
-4.2037864	TEACH	-0.1396589
-4.2037864	TENSION	-0.1396589
-4.090559	DROPLETS	-0.19679238
-4.2037864	STEAMING	-0.1396589
-4.2037864	RISES	-0.1396589
-4.2037864	DECREASE	-0.1396589
-4.090559	DEPENDING	-0.2284496
-4.2037864	FREEZES	-0.1396589
-4.090559	CONTRACTS	-0.1396589
-4.2037864	BULGING	-0.1396589
-4.2037864	FREE	-0.1396589
-4.2037864	HARDENS	-0.1396589
-4.2037864	OPENING	-0.1396589
-4.2037864	CONTRACTING	-0.1396589
-4.2037864	DRIES	-0.1396589
-4.2037864	INVISIBLE	-0.1396589
-4.2037864	COMMON	-0.1396589
-4.2037864	FLATTER	-0.1396589
-4.2037864	ROUNDER	-0.1396589
-4.090559	GOTTA	-0.1396589
-4.2037864	WATCHED	-0.1396589
-4.2037864	IM	-0.1396589
-4.2037864	COMBINING	-0.1396589
-4.2037864	FORMING	-0.1396589
-4.090559	CLUMPING	-0.2284496
-4.2037864	TENSIONS	-0.1396589
-4.2037864	STEEPER	-0.1396589
-4.2037864	GRAVITY	-0.1396589
-4.090559	SINKING	-0.1396589
-4.2037864	LEAKS	-0.1396589
-4.2037864	READY	-0.1396589
-4.2037864	VAPOR	-0.1396589
-4.2037864	HUMID	-0.1396589
-4.2037864	MOISTURE	-0.1396589
-4.2037864	AIR'S	-0.1396589
-4.090559	WATCH	-0.1396589
-4.2037864	CONDENSING	-0.1396589
-4.2037864	ROUNDISH	-0.1396589
-4.2037864	DOWNHILL	-0.1396589
-4.2037864	SHAFT	-0.1396589
-4.2037864	PLATES	-0.1396589
-4.2037864	NATURALLY	-0.1396589
-4.2037864	STATES	-0.1396589
-4.2037864	MOCK	-0.1396589
-4.2037864	IMAGINARY	-0.1396589
-4.2037864	ESTIMATION	-0.1396589
-4.2037864	SI	-0.1396589
-4.2037864	POSSIBLE	-0.1396589
-4.2037864	PER	-0.1396589
-4.2037864	PERS	-0.1396589
-4.2037864	QUESTIONS	-0.1396589
-4.2037864	GOO	-0.1396589
-4.2037864	MARTIE	-0.1396589
-4.2037864	GOODBYE	-0.1396589
-4.2037864	MEANING	-0.1396589
-4.2037864	ELL	-0.1396589
-4.2037864	MAIL	-0.1396589
-4.2037864	WEIGHER	-0.1396589
-4.2037864	LISTENING	-0.1396589
-4.2037864	ASSIGNMENT	-0.1396589
-4.2037864	COMPACITY	-0.1396589
-4.2037864	COMMENT	-0.1396589
-4.2037864	OBSERVATIONS	-0.1396589
-4.2037864	IMPORT	-0.1396589
-4.2037864	SPEAKING	-0.1396589
-4.2037864	DAN	-0.1396589
-4.2037864	BRIDGER	-0.1396589
-3.9845102	MOMENT	-0.1396589
-4.2037864	NICKEL	-0.1396589
-4.090559	VOICE	-0.1396589
-4.090559	KILOGRAM	-0.17302972
-3.5086567	NINE	-0.1396589
-4.2037864	DECIDE	-0.1396589
-4.2037864	LITTLER	-0.1396589
-4.2037864	SHOE	-0.1396589
-4.090559	WHO	-0.1396589
-4.2037864	EV	-0.1396589
-4.2037864	MEASURES	-0.1396589
-4.2037864	CALCULATE	-0.1396589
-4.2037864	WATERS	-0.1396589
-4.2037864	MEATHER	-0.1396589
-4.2037864	SWINGERS	-0.1396589
-4.2037864	LIFEBOAT	-0.1396589
-4.2037864	PLACED	-0.1396589
-4.2037864	CORNERS	-0.1396589
-3.9845102	PU	-0.1396589
-4.2037864	MYSELF	-0.1396589
-4.2037864	SUPERSTAR	-0.1396589
-4.090559	KIDDING	-0.2284496
-3.7300825	FLIP	-0.17302972
-3.9845102	POPSICLE	-0.19679238
-4.090559	TOTAL	-0.1396589
-4.2037864	TRIALS	-0.1396589
-3.9845102	TESTED	-0.16728678
-4.2037864	FORCED	-0.1396589
-4.2037864	FRESH	-0.1396589
-4.2037864	WINDOWSILL	-0.1396589
-4.2037864	CUTTING	-0.1396589
-4.2037864	STABILITY	-0.1396589
-4.2037864	BASIN	-0.1396589
-4.090559	UNDERWATER	-0.1396589
-4.2037864	PREDICTION	-0.1396589
-4.090559	NAMED	-0.2284496
-4.090559	SPEEDBOAT	-0.1396589
-4.2037864	DUNKED	-0.1396589
-4.2037864	CROSSING	-0.1396589
-4.2037864	HOUR	-0.1396589
-4.090559	CONCLUSION	-0.1396589
-4.2037864	ENTIRE	-0.1396589
-4.2037864	SEVENTH	-0.1396589
-4.2037864	GRADE	-0.1396589
-3.7300825	HERE'S	-0.36722457
-4.2037864	SHOOK	-0.1396589
-4.090559	TE	-0.1396589
-4.090559	INCREMENTS	-0.2284496
-4.2037864	PROPELLER	-0.1396589
-4.2037864	MINIMUM	-0.1396589
-4.2037864	SPUN	-0.1396589
-4.2037864	BOEING	-0.1396589
-4.2037864	DOGS	-0.1396589
-4.2037864	ADVANCED	-0.1396589
-4.090559	FLIPS	-0.1396589
-4.2037864	FLING	-0.1396589
-3.9845102	ANGLE	-0.27031457
-4.2037864	BRACE	-0.1396589
-4.2037864	TIL	-0.1396589
-4.2037864	FLINGS	-0.1396589
-4.2037864	PREDICTING	-0.1396589
-4.2037864	PIERCE	-0.1396589
-4.2037864	FLIPPER	-0.1396589
-4.2037864	PHYSICS	-0.1396589
-4.2037864	ALGEBRA	-0.1396589
-4.2037864	FIVES	-0.1396589
-4.2037864	GEEZ	-0.1396589
-4.2037864	EARS	-0.1396589
-4.2037864	GRAPHED	-0.1396589
-4.2037864	FINDINGS	-0.1396589
-4.2037864	FIFTIES	-0.1396589
-4.2037864	CARES	-0.1396589
-4.2037864	HEATING	-0.1396589
-4.2037864	FLOODING	-0.1396589
-4.2037864	RECEIVERS	-0.1396589
-4.090559	QU	-0.1396589
-4.2037864	DUNN	-0.1396589
-4.090559	YE	-0.1396589
-4.2037864	HOOK	-0.1396589
-4.2037864	VARY	-0.1396589
-4.2037864	CONNECTION	-0.1396589
-4.090559	BATTERY'S	-0.1396589
-4.2037864	HEY	-0.1396589
-4.2037864	BARS	-0.1396589
-4.2037864	EXCESS	-0.1396589
-4.2037864	ACCESS	-0.1396589
-4.090559	SEVENTEEN	-0.1396589
-4.2037864	SIERRA	-0.1396589
-3.9845102	OLD	-0.1396589
-4.2037864	MONTH	-0.1396589
-3.9845102	ROUND	-0.1396589
-4.2037864	CRUSHING	-0.1396589
-4.2037864	YEA	-0.1396589
-4.2037864	ELEVATORS	-0.1396589
-4.2037864	TIGHTENING	-0.1396589
-4.090559	SHOCKED	-0.1396589
-4.090559	SURPRISE	-0.2284496
-4.2037864	STRIPPED	-0.1396589
-4.2037864	PROTECTIVE	-0.1396589
-4.2037864	SHIELD	-0.1396589
-4.2037864	DAD'S	-0.1396589
-4.2037864	ELECTRICIAN	-0.1396589
-4.2037864	FORWARD	-0.1396589
-4.2037864	WHATS	-0.1396589
-4.090559	THIN	-0.1396589
-4.090559	SYMBOLS	-0.1396589
-4.2037864	BUMP	-0.1396589
-4.2037864	BOARD	-0.1396589
-4.2037864	PATHS	-0.1396589
-4.2037864	ACTING	-0.1396589
-4.2037864	MAG	-0.1396589
-4.2037864	STRENGTHEN	-0.1396589
-4.2037864	LABLE	-0.1396589
-4.090559	RECORD	-0.1396589
-4.2037864	LOSE	-0.1396589
-4.2037864	FIGURING	-0.1396589
-4.2037864	DIFFERENCES	-0.1396589
-4.090559	BALLS	-0.1396589
-4.2037864	LANDON	-0.1396589
-4.2037864	NORMALLY	-0.1396589
-3.9845102	INCREASING	-0.19679238
-4.2037864	HIDDEN	-0.1396589
-4.2037864	WIG	-0.1396589
-4.2037864	CRAZY	-0.1396589
-4.2037864	FILINGS	-0.1396589
-3.9845102	SCHEMATIC	-0.324354
-4.2037864	DRAWING	-0.1396589
-4.2037864	COMONENT	-0.1396589
-4.090559	SYMBOL	-0.1396589
-4.2037864	BLOCKING	-0.1396589
-4.2037864	CRAFT	-0.1396589
-4.2037864	BOARDS	-0.1396589
-4.2037864	FASTENERS	-0.1396589
-4.2037864	FASTENER	-0.1396589
-4.2037864	BEAM	-0.1396589
-4.090559	FI	-0.1396589
-4.2037864	NA	-0.1396589
-4.2037864	STABLE	-0.1396589
-4.2037864	PLA	-0.1396589
-4.2037864	STUPID	-0.1396589
-4.2037864	SNOW	-0.1396589
-4.2037864	LEOPARDS	-0.1396589
-4.2037864	ENJOY	-0.1396589
-4.2037864	SAN	-0.1396589
-4.2037864	EQUALLY	-0.1396589
-4.090559	PENS	-0.1396589
-4.2037864	PEN	-0.1396589
-3.9845102	DISCOVERED	-0.324354
-3.8389251	CLEMENTINES	-0.17302972
-4.2037864	GIANT	-0.1396589
-4.090559	HOLLOW	-0.1396589
-4.2037864	ORANGES	-0.1396589
-4.2037864	WHOA	-0.1396589
-4.2037864	WRINGED	-0.1396589
-3.9845102	SIXTEEN	-0.324354
-4.2037864	AR	-0.1396589
-4.2037864	SEEN	-0.1396589
-4.2037864	SIMPLY	-0.1396589
-4.2037864	FIL	-0.1396589
-4.2037864	IMAGINE	-0.1396589
-4.090559	MIL	-0.1396589
-4.2037864	CANS	-0.1396589
-4.090559	OURS	-0.1396589
-4.2037864	TOPPLE	-0.1396589
-4.2037864	PEEK	-0.1396589
-4.2037864	INVESTIGATION	-0.1396589
-4.2037864	BREW	-0.1396589
-3.8389251	SYRINGES	-0.1396589
-4.2037864	HO	-0.1396589
-4.090559	WARMEST	-0.2284496
-4.2037864	CONCLUDING	-0.1396589
-4.2037864	SENTENCE	-0.1396589
-4.090559	COUNTING	-0.2284496
-4.090559	AX	-0.1396589
-4.090559	SLOWER	-0.1396589
-4.2037864	PLANES	-0.1396589
-4.2037864	PLANE'S	-0.1396589
-4.090559	FISHING	-0.1396589
-4.2037864	PROPELLERS	-0.1396589
-4.2037864	CATCHES	-0.1396589
-4.2037864	CATAPULT	-0.1396589
-4.090559	RUBBER	-0.19679238
-4.2037864	STEP	-0.1396589
-4.2037864	POKEMON	-0.1396589
-4.2037864	CARDS	-0.1396589
-3.9845102	MARLIE	-0.1396589
-4.2037864	CHUNK	-0.1396589
-4.2037864	TECHNICALLY	-0.1396589
-4.2037864	TWIRL	-0.1396589
-4.2037864	CAL	-0.1396589
-4.2037864	PROP	-0.1396589
-4.2037864	BAND	-0.1396589
-4.2037864	CARTER	-0.1396589
-4.090559	STANDS	-0.2284496
-4.2037864	NEAREST	-0.1396589
-4.2037864	ESIMATES	-0.1396589
-4.090559	DISK	-0.1396589
-4.2037864	SOMEONE'S	-0.1396589
-4.2037864	SHOULDN'T	-0.1396589
-4.2037864	MISTER	-0.1396589
-4.2037864	BONA	-0.1396589
-4.2037864	ADDITION	-0.1396589
-4.2037864	TEMPERATURE'S	-0.1396589
-4.2037864	CELS	-0.1396589
-4.2037864	MINUSED	-0.1396589
-4.2037864	CLOSELY	-0.1396589
-4.2037864	NAME'S	-0.1396589
-4.2037864	DOMINICK	-0.1396589
-4.2037864	CURIOSITY	-0.1396589
-4.2037864	EXAMINING	-0.1396589
-4.2037864	EDGES	-0.1396589
-4.2037864	TWICE	-0.1396589
-4.2037864	FITS	-0.1396589
-4.2037864	REFERENCE	-0.1396589
-4.2037864	NOTHIN	-0.1396589
-4.090559	FOREARM	-0.1396589
-4.2037864	ESTIMATE'S	-0.1396589
-4.2037864	JUMBO	-0.1396589
-4.2037864	PIN	-0.1396589
-4.2037864	FULCRUM	-0.1396589
-4.2037864	EAR'S	-0.1396589
-4.2037864	ITCHY	-0.1396589
-4.2037864	BOOT	-0.1396589
-4.2037864	PUFFY	-0.1396589
-4.2037864	PUFFIER	-0.1396589
-4.2037864	ROBOT'S	-0.1396589
-4.2037864	THOUSANDTH	-0.1396589
-4.2037864	THOUSANDTHS	-0.1396589
-4.090559	SPECIFIC	-0.1396589
-4.2037864	FAMILY	-0.1396589
-4.2037864	BACKED	-0.1396589
-4.2037864	USUAL	-0.1396589
-4.2037864	D'S	-0.1396589
-4.2037864	MAXIMUM	-0.1396589
-4.090559	VESSEL	-0.1396589
-4.2037864	COMPARES	-0.1396589
-4.2037864	THERMOMETERS	-0.1396589
-4.2037864	DE	-0.1396589
-4.2037864	OBSERVATION	-0.1396589
-4.2037864	SHEETS	-0.1396589
-4.2037864	LOWEST	-0.1396589
-4.2037864	HAIR	-0.1396589
-4.2037864	PROGRAMMING	-0.1396589
-4.2037864	MEMORIZE	-0.1396589
-4.2037864	DREW	-0.1396589
-4.2037864	MESH	-0.1396589
-4.2037864	RECENTLY	-0.1396589
-4.090559	COMPLETES	-0.2284496
-4.090559	ALLOW	-0.2284496
-4.090559	OUTLET	-0.1396589
-4.2037864	STICKERS	-0.1396589
-4.2037864	GRAPHING	-0.1396589
-4.2037864	COURSE	-0.1396589
-4.2037864	LO	-0.1396589
-4.2037864	REPELS	-0.1396589
-4.2037864	S'S	-0.1396589
-4.2037864	PO	-0.1396589
-4.2037864	TORCHES	-0.1396589
-4.2037864	RECEIVING	-0.1396589
-4.2037864	PAD	-0.1396589
-4.2037864	ALLY	-0.1396589
-4.2037864	SURPRISING	-0.1396589
-4.2037864	JUNKYARD	-0.1396589
-4.2037864	EXPLAINED	-0.1396589
-4.2037864	NEG	-0.1396589
-4.2037864	CHOCOLATE	-0.1396589

\2-grams:
-0.71373296	YEAST </s>	0
-1.5845802	HAS </s>	0
-0.67858046	CELLS </s>	0
-1.2246588	THAT </s>	0
-1.3306141	ARE </s>	0
-0.35491216	ALIVE </s>	0
-1.5940832	THEY </s>	0
-0.9031047	OXYGEN </s>	0
-1.4951825	TO </s>	0
-0.91269284	BREATHE </s>	0
-1.7456534	BECAUSE </s>	0
-1.2256471	LIVING </s>	0
-0.7588748	THINGS </s>	0
-1.4669536	ALL </s>	0
-0.8280009	PLANTS </s>	0
-0.7737639	AIR </s>	0
-1.2755145	CAN'T </s>	0
-1.2097205	IT </s>	0
-1.5127946	IT'S </s>	0
-0.7061132	SUNLIGHT </s>	0
-0.8415669	ENERGY </s>	0
-0.7449039	YES </s>	0
-1.3016789	WON'T </s>	0
-0.6102014	GROW </s>	0
-1.4611843	SOME </s>	0
-1.42674	OF </s>	0
-1.0931878	DON'T </s>	0
-1.3839533	HAVE </s>	0
-0.8606754	ENOUGH </s>	0
-1.4291439	CAUSE </s>	0
-1.2818452	THEN </s>	0
-1.2300214	THIS </s>	0
-1.3178648	IS </s>	0
-0.86796373	FOOD </s>	0
-1.0449629	DOESN'T </s>	0
-0.63677615	SUN </s>	0
-0.72804093	ISN'T </s>	0
-0.88772804	NO </s>	0
-0.84409195	WAIT </s>	0
-1.2149932	NEEDS </s>	0
-1.2856387	CAN </s>	0
-1.4638882	AND </s>	0
-1.092173	PLANT </s>	0
-1.3460534	OR </s>	0
-1.1321626	PRODUCE </s>	0
-1.345638	SHOWS </s>	0
-1.1502414	FERTILIZER </s>	0
-1.1826347	SUCH </s>	0
-0.42761627	GRASS </s>	0
-1.1497424	DO </s>	0
-0.7158419	SHELTER </s>	0
-0.7608203	SOMETHING </s>	0
-1.3704224	YOU </s>	0
-1.10322	GET </s>	0
-1.3582535	BY </s>	0
-1.4836648	CARBON </s>	0
-1.1857538	DIOXIDE </s>	0
-1.2238322	THOSE </s>	0
-1.4407411	THEIR </s>	0
-1.580145	FROM </s>	0
-1.5767058	THE </s>	0
-0.9136088	WATER </s>	0
-0.9195903	UNDER </s>	0
-1.0997136	GROUND </s>	0
-1.2909719	PEOPLE </s>	0
-0.7303437	DOWN </s>	0
-1.6001768	MAKE </s>	0
-1.0751143	OWN </s>	0
-1.4259784	ONLY </s>	0
-1.1485596	GOT </s>	0
-1.1395023	TWO </s>	0
-0.8707181	MORE </s>	0
-1.4929314	FOR </s>	0
-1.3199171	DIDN'T </s>	0
-1.2197595	WAS </s>	0
-1.1114752	MISSING </s>	0
-1.3880155	WILL </s>	0
-0.7158419	DIE </s>	0
-1.0213666	GROWN </s>	0
-1.3288037	BUT </s>	0
-0.8031771	WAY </s>	0
-0.9739897	THREE </s>	0
-1.3595084	MEANS </s>	0
-1.3023119	ON </s>	0
-1.4601231	BEEN </s>	0
-0.7158419	LIFE </s>	0
-0.7790686	BODY </s>	0
-0.7108502	PARTS </s>	0
-1.4911368	A </s>	0
-1.4358141	THESE </s>	0
-1.1321626	BLUE </s>	0
-1.407443	SHOWING </s>	0
-1.0595764	DIFFERENT </s>	0
-1.2017744	LIKE </s>	0
-1.4076883	BRAIN </s>	0
-0.97614586	CELL </s>	0
-1.0402395	MUSCLE </s>	0
-1.3313466	IN </s>	0
-1.3948532	AT </s>	0
-0.78703153	ME </s>	0
-1.3825384	HELP </s>	0
-1.3744389	US </s>	0
-1.1860859	NOT </s>	0
-0.5014205	SUNBURNED </s>	0
-1.0352278	ALSO </s>	0
-0.58905625	MUSCLES </s>	0
-1.8133138	I </s>	0
-1.5464602	SEE </s>	0
-1.3238379	SKIN </s>	0
-0.7863856	GREEN </s>	0
-0.5854904	BOX </s>	0
-1.0780275	BUTTERFLY </s>	0
-0.70078427	THEM </s>	0
-1.4338243	BOTH </s>	0
-1.3829792	SAME </s>	0
-1.1985543	WELL </s>	0
-0.8950474	HUMAN </s>	0
-1.3165339	DIGESTIVE </s>	0
-0.5897564	SYSTEM </s>	0
-1.127409	ESOPHAGUS </s>	0
-0.99635005	MOUTH </s>	0
-1.3987666	THINK </s>	0
-1.0970459	ABOUT </s>	0
-0.5867698	STUFF </s>	0
-1.4097933	MAKING </s>	0
-1.5452228	INTO </s>	0
-0.45543724	NUTRIENTS </s>	0
-1.0661936	BREAKS </s>	0
-1.3539336	TURNS </s>	0
-0.8798698	FOODS </s>	0
-1.2155821	LITTLE </s>	0
-0.7674861	PIECES </s>	0
-0.62674487	GOOD </s>	0
-1.0370963	PART </s>	0
-1.1393137	KNOW </s>	0
-1.1114752	INTESTINES </s>	0
-0.8798698	BROKE </s>	0
-0.95128596	STOMACH </s>	0
-0.75030434	UP </s>	0
-1.3605134	COMES </s>	0
-1.0780275	SHAPE </s>	0
-0.89348024	SIZES </s>	0
-1.3165339	SORT </s>	0
-0.6179669	FEATHER </s>	0
-0.56921095	VEINS </s>	0
-0.63565814	LEAF </s>	0
-0.9778505	NORMAL </s>	0
-0.5115267	XYLEM </s>	0
-1.4452206	GOING </s>	0
-0.8798698	PHLOEM </s>	0
-0.57324356	LOW </s>	0
-0.7503182	SAP </s>	0
-1.4504117	GOES </s>	0
-1.0435381	THROUGH </s>	0
-1.0103842	SO </s>	0
-1.1254606	BAG </s>	0
-0.8798698	HUMIDITY </s>	0
-0.9344586	LUNGS </s>	0
-1.2615603	HEART </s>	0
-0.7503182	CAPILLARY </s>	0
-0.8439702	OUT </s>	0
-1.2100908	NOSE </s>	0
-1.0594721	C </s>	0
-1.188918	O </s>	0
-0.9360309	BACK </s>	0
-1.3888557	LET </s>	0
-0.9624786	GO </s>	0
-1.7173055	WE </s>	0
-1.2026188	LEARNING </s>	0
-0.89868426	DECOMPOSERS </s>	0
-0.7219102	PRODUCERS </s>	0
-0.354757	CHAINS </s>	0
-0.6731119	SURE </s>	0
-1.0213666	FALLS </s>	0
-1.1925135	FIRST </s>	0
-0.9224625	THERE </s>	0
-1.3427737	MANY </s>	0
-0.49814108	SUBSYSTEMS </s>	0
-1.0925634	ONE </s>	0
-1.0202222	CAR </s>	0
-1.3827766	AN </s>	0
-0.9778505	EXAMPLE </s>	0
-1.3701825	MY </s>	0
-0.5833545	SCIENCE </s>	0
-0.537833	CLASS </s>	0
-0.49773052	SYSTEMS </s>	0
-0.5115914	MOVE </s>	0
-1.4460477	WOULD </s>	0
-1.3313459	BE </s>	0
-0.421602	WORK </s>	0
-0.8798698	CORRECTLY </s>	0
-1.0874981	EXACTLY </s>	0
-1.318296	WHAT </s>	0
-0.82709104	DOES </s>	0
-1.127409	WEB </s>	0
-0.6226419	CONSUMERS </s>	0
-1.0653362	GROUPS </s>	0
-0.75926936	CHAIN </s>	0
-1.3134214	YOU'RE </s>	0
-1.042029	BASICALLY </s>	0
-1.2411832	BOTTOM </s>	0
-1.0593708	EAT </s>	0
-0.5970149	ANYTHING </s>	0
-1.232906	OTHER </s>	0
-0.6367055	ANIMALS </s>	0
-1.2402564	ACTUALLY </s>	0
-1.2171541	EVERYTHING </s>	0
-1.2916989	GIVE </s>	0
-0.58905625	OTHERS </s>	0
-1.8056159	WHEN </s>	0
-0.44899827	CONSUMER </s>	0
-1.294035	BACTERIA </s>	0
-1.0997136	SLOWLY </s>	0
-1.3895216	OUR </s>	0
-0.5014205	RESOURCE </s>	0
-1.3312486	LEARNED </s>	0
-1.0042881	UM </s>	0
-0.95128596	HERBIVORES </s>	0
-0.9037624	OMNIVORES </s>	0
-1.127409	CARNIVORES </s>	0
-0.50453573	DETRIVORES </s>	0
-0.508392	YEAH </s>	0
-0.55828035	MEAT </s>	0
-1.5645366	HOW </s>	0
-0.94225246	CONNECTS </s>	0
-0.5282543	MATTER </s>	0
-0.92431766	OMNIVORE </s>	0
-0.88790286	HERBIVORE </s>	0
-0.7124987	DECOMPOSER </s>	0
-0.9565645	WORMS </s>	0
-0.933818	HALF </s>	0
-0.53649163	WEIGHT </s>	0
-1.4444818	WITH </s>	0
-1.2853845	DEAD </s>	0
-0.96277684	ROTTEN </s>	0
-0.67584145	ENVIRONMENT </s>	0
-0.9812263	CIRCLE </s>	0
-0.8798698	SHORT </s>	0
-1.2229885	CLIP </s>	0
-0.61946785	TODAY </s>	0
-1.4803586	I'M </s>	0
-1.4025989	DOING </s>	0
-1.2974013	LOT </s>	0
-0.6247163	EFFECT </s>	0
-1.1071708	ANIMAL </s>	0
-1.3474398	GETTING </s>	0
-0.354757	OFTEN </s>	0
-0.6179669	HAPPENING </s>	0
-0.58905625	ORGANISM </s>	0
-0.56945014	ORGANISMS </s>	0
-0.5115267	STARVATION </s>	0
-0.92431766	SURVIVE </s>	0
-1.0213666	CORRECT </s>	0
-0.54951304	TIME </s>	0
-0.75155276	LIVE </s>	0
-0.5115267	INTERESTING </s>	0
-0.69713426	PROBLEM </s>	0
-1.0342121	WHY </s>	0
-0.7503182	HAMBURGER </s>	0
-1.0213666	COUPLE </s>	0
-0.4838329	JUICE </s>	0
-0.92431766	APPLE </s>	0
-1.3211764	COULD </s>	0
-1.0506983	PICTURE </s>	0
-0.5014205	KEY </s>	0
-1.6266992	MADE </s>	0
-1.1552058	GUESS </s>	0
-1.4174892	JUST </s>	0
-0.9116122	OVER </s>	0
-0.69713426	CYCLE </s>	0
-0.89348024	GREAT </s>	0
-1.1585723	IMPORTANT </s>	0
-0.96277684	ROLE </s>	0
-1.4052998	LOOK </s>	0
-0.89348024	HEALTHY </s>	0
-1.2951658	TELL </s>	0
-1.3151019	NEXT </s>	0
-0.73555535	MAYBE </s>	0
-0.6142687	NOW </s>	0
-1.113981	ANY </s>	0
-0.5827241	TOO </s>	0
-0.5961441	QUESTION </s>	0
-1.3305255	LOOKS </s>	0
-1.0213666	BIOSPHERE </s>	0
-1.1824242	START </s>	0
-0.80981386	NAME </s>	0
-0.6400364	LEAVES </s>	0
-0.82957554	PARALLEL </s>	0
-1.4625276	INSIDE </s>	0
-0.8798698	ORGANS </s>	0
-0.5014205	DIGESTED </s>	0
-0.96277684	PURPLE </s>	0
-0.8798698	SPOTS </s>	0
-1.5253829	WHERE </s>	0
-0.6950447	SMALLER </s>	0
-0.5014205	LEAFS </s>	0
-0.88993984	BIT </s>	0
-0.5014205	COMPLEX </s>	0
-0.91047955	BLOOD </s>	0
-0.8065486	SOLID </s>	0
-0.6094879	WASTE </s>	0
-1.1389577	CHEMICAL </s>	0
-0.5014205	ACTIONS </s>	0
-0.85777855	TEETH </s>	0
-0.7863903	BALL </s>	0
-0.6746354	LONG </s>	0
-1.1797111	TUBE </s>	0
-0.9905124	REALLY </s>	0
-0.8798698	INTESTINE </s>	0
-1.1208136	BEFORE </s>	0
-0.7503182	CAPILLARIES </s>	0
-0.7503182	ALVEOLI </s>	0
-1.3073547	GETS </s>	0
-1.0706227	WASN'T </s>	0
-1.1710076	BREATHING </s>	0
-0.69934654	RIGHT </s>	0
-1.4058402	TAKE </s>	0
-0.8798698	EXHALE </s>	0
-1.0743837	MUCH </s>	0
-1.2698722	USE </s>	0
-0.9558358	ATTRACT </s>	0
-0.5014205	MATE </s>	0
-0.61346906	SOUND </s>	0
-1.2286581	HAVEN'T </s>	0
-0.77699804	ADAPTATIONS </s>	0
-0.7654954	SHELL </s>	0
-0.69713426	PREDATOR </s>	0
-0.7804752	HEAT </s>	0
-1.1710076	EASIER </s>	0
-0.5014205	REASONS </s>	0
-0.6215457	SMALL </s>	0
-0.8798698	CORAL </s>	0
-0.80618715	COLORS </s>	0
-0.7503182	EASY </s>	0
-0.96277684	COLORFUL </s>	0
-0.91892743	SECOND </s>	0
-0.91892743	FEET </s>	0
-0.4590059	SWIM </s>	0
-0.80337894	FAST </s>	0
-0.5854904	ADAPTATION </s>	0
-0.862713	BRIGHT </s>	0
-0.7158419	PREDATORS </s>	0
-1.1478825	STAY </s>	0
-0.44361806	AWAY </s>	0
-0.8798698	POISONOUS </s>	0
-1.1857538	USUALLY </s>	0
-1.1913016	MEAN </s>	0
-0.8798698	POISON </s>	0
-1.0213666	RATTLE </s>	0
-1.0213666	RATTLESNAKE </s>	0
-1.1463426	SCARED </s>	0
-1.1502414	STIMULUS </s>	0
-1.2355595	REACTION </s>	0
-1.2203302	SKUNK </s>	0
-1.0213666	COYOTE </s>	0
-0.7503182	SQUIRT </s>	0
-0.75926936	SMELL </s>	0
-0.63398397	HORRIBLE </s>	0
-1.2785447	OH </s>	0
-0.8868738	BIG </s>	0
-1.0586044	OFF </s>	0
-1.188918	SNAKE </s>	0
-0.354757	ALONE </s>	0
-0.7224713	AROUND </s>	0
-0.80981386	WHEEL </s>	0
-0.7503182	DRIVE </s>	0
-1.3198696	GAS </s>	0
-0.4526339	RUN </s>	0
-0.8798698	PIPES </s>	0
-0.99627376	LIGHTS </s>	0
-1.126029	RED </s>	0
-1.4512417	FLOWING </s>	0
-1.0731174	UH </s>	0
-1.1474255	DID </s>	0
-0.70781124	SAY </s>	0
-0.69713426	PRODUCER </s>	0
-1.1114752	DECOMPOSE </s>	0
-0.8798698	FUNGUS </s>	0
-1.151763	EATING </s>	0
-0.7379866	THING </s>	0
-0.6094879	CARNIVORE </s>	0
-0.63407177	AH </s>	0
-0.5014205	HUNGRY </s>	0
-0.94660807	WHITE </s>	0
-0.7503182	RABBIT </s>	0
-1.3442835	TALKING </s>	0
-0.96277684	COMPOST </s>	0
-0.85777855	HIGH </s>	0
-1.2203302	REAL </s>	0
-0.354757	SHRINK </s>	0
-0.96277684	BODIES </s>	0
-1.1267741	TOP </s>	0
-0.6179669	PINK </s>	0
-0.6322722	TOGETHER </s>	0
-0.8571564	ONES </s>	0
-0.8798698	THROAT </s>	0
-0.39951193	BYE </s>	0
-0.96277684	NOTICED </s>	0
-0.6179669	SHAPES </s>	0
-0.96277684	FORMS </s>	0
-0.52946395	HAND </s>	0
-0.752823	SIDE </s>	0
-0.5014205	DIRECTIONS </s>	0
-1.2214843	STRAIGHT </s>	0
-0.8158076	H </s>	0
-1.4003347	CONNECTED </s>	0
-1.0213666	FORTH </s>	0
-0.69713426	HOUSE </s>	0
-0.8798698	TRACHEA </s>	0
-1.376673	FLOWS </s>	0
-0.97851175	E </s>	0
-1.1758592	NUMBER </s>	0
-1.0213666	TREES </s>	0
-0.8158076	DIRT </s>	0
-0.8798698	HAWK </s>	0
-1.2384684	WHATEVER </s>	0
-0.56921095	FASTER </s>	0
-0.7503182	PATTERN </s>	0
-0.5014205	BARNEY </s>	0
-0.7503182	LISTEN </s>	0
-0.9914529	WORKS </s>	0
-0.7503182	REFLEX </s>	0
-1.0911007	PULL </s>	0
-0.9778505	INSTINCTUAL </s>	0
-1.2529539	LEARN </s>	0
-1.2812794	ALREADY </s>	0
-1.3507028	SHE </s>	0
-0.5014205	DOCTOR </s>	0
-1.1114752	WALKING </s>	0
-0.5014205	SHORE </s>	0
-0.6179669	TREE </s>	0
-0.8798698	INSTINCTIVE </s>	0
-0.8798698	SOMEWHERE </s>	0
-0.9001639	FOUR </s>	0
-0.7503182	FALL </s>	0
-1.0117514	TURN </s>	0
-1.2005169	POWER </s>	0
-0.8798698	ENGINE </s>	0
-1.2325974	KINDA </s>	0
-1.2244984	EARTH </s>	0
-1.0351467	MOUNTAIN </s>	0
-0.7654954	CHEMICALS </s>	0
-1.0213666	HYDROSPHERE </s>	0
-0.9802244	WIND </s>	0
-0.63398397	STRONG </s>	0
-0.5014205	CHEESEBURGER </s>	0
-0.8798698	BREAD </s>	0
-1.1975279	EVEN </s>	0
-0.90954864	BAD </s>	0
-0.91892743	FORGOT </s>	0
-0.80023235	HI </s>	0
-0.3258444	PHOTOSYNTHESIS </s>	0
-1.4407039	EACH </s>	0
-0.69713426	MUSHROOMS </s>	0
-1.127409	ALMOST </s>	0
-0.7503182	VENUS </s>	0
-1.1329544	NOTHING </s>	0
-0.65343493	ELSE </s>	0
-1.0997136	HIM </s>	0
-0.5014205	NUTRITION </s>	0
-1.3378704	UHM </s>	0
-1.1605004	SUGAR </s>	0
-0.7503182	CRACKER </s>	0
-1.0780275	FUNGI </s>	0
-0.6372111	PLACE </s>	0
-0.4590059	FLOATING </s>	0
-0.5115267	OCEAN </s>	0
-0.7503182	WILTED </s>	0
-0.57544625	YEP </s>	0
-0.8798698	LEG </s>	0
-0.8798698	CONTRACT </s>	0
-0.8798698	EXPAND </s>	0
-1.2084663	YOU'D </s>	0
-1.1114752	CUT </s>	0
-1.1234189	SOMETIMES </s>	0
-1.1589382	LARGER </s>	0
-1.0911007	PUSHES </s>	0
-0.80981386	MOVES </s>	0
-0.96277684	BROKEN </s>	0
-0.5014205	BUNDLES </s>	0
-0.66051173	RUNNING </s>	0
-0.5115267	MAINLY </s>	0
-0.8798698	VEIN </s>	0
-0.8798698	LABELLED </s>	0
-0.74978286	HERE </s>	0
-1.2254685	PIECE </s>	0
-0.7503182	FALLEN </s>	0
-0.5014205	RESPONSE </s>	0
-0.6179669	POINTS </s>	0
-0.7503182	BEHAVIOR </s>	0
-0.89965	BREAK </s>	0
-0.5014205	FACE </s>	0
-1.1502414	HAPPENS </s>	0
-0.8798698	BUNNY </s>	0
-0.5014205	BUGS </s>	0
-0.7503182	BIRDS </s>	0
-1.1235644	PLEASE </s>	0
-0.7575907	REPEAT </s>	0
-0.69713426	FINE </s>	0
-1.3326421	MEASURE </s>	0
-0.7503182	TOY </s>	0
-0.5436131	DISSOLVING </s>	0
-0.4590059	COOKIE </s>	0
-0.57324356	MOLECULES </s>	0
-0.8798698	LOUD </s>	0
-0.5014205	UNDERGROUND </s>	0
-0.8798698	PERFECT </s>	0
-0.8158076	GROWING </s>	0
-0.8798698	CLUE </s>	0
-0.3903859	AGAIN </s>	0
-0.4649585	MARNIE </s>	0
-1.0213666	BEE </s>	0
-0.5014205	ANUS </s>	0
-1.204142	GIVES </s>	0
